{"learner":{"attributes":{"best_iteration":"0","best_ntree_limit":"1","best_score":"0.6950130787043445","scikit_learn":"{\"use_label_encoder\": null, \"n_estimators\": 1000, \"objective\": \"binary:logistic\", \"max_depth\": 5, \"max_leaves\": null, \"max_bin\": null, \"grow_policy\": null, \"learning_rate\": 0.02, \"verbosity\": null, \"booster\": null, \"tree_method\": null, \"gamma\": null, \"min_child_weight\": null, \"max_delta_step\": null, \"subsample\": 0.8, \"sampling_method\": null, \"colsample_bytree\": 0.8, \"colsample_bylevel\": null, \"colsample_bynode\": null, \"reg_alpha\": 0.5, \"reg_lambda\": 2.0, \"scale_pos_weight\": 7.0, \"base_score\": null, \"missing\": NaN, \"num_parallel_tree\": null, \"random_state\": 42, \"n_jobs\": null, \"monotone_constraints\": null, \"interaction_constraints\": null, \"importance_type\": null, \"gpu_id\": null, \"validate_parameters\": null, \"predictor\": null, \"enable_categorical\": false, \"feature_types\": null, \"max_cat_to_onehot\": null, \"max_cat_threshold\": null, \"eval_metric\": \"logloss\", \"early_stopping_rounds\": null, \"callbacks\": null, \"classes_\": [0, 1], \"n_classes_\": 2, \"evals_result_\": {\"validation_0\": {\"logloss\": [0.6950130787043445, 0.6967705015912196, 0.6993799473737843, 0.7005620144556135, 0.7020375488200424, 0.7029310628173301, 0.7051526219200488, 0.706562839088349, 0.707968367412027, 0.709835357918392, 0.7119242276075829, 0.7132778423955605, 0.7141661913399797, 0.7152574214503585, 0.7166277981477988, 0.7172282925262348, 0.7186772573188992, 0.7204188359704774, 0.7219601895753992, 0.7241562152493154, 0.7263004078882904]}}, \"_estimator_type\": \"classifier\"}"},"feature_names":["keyword_enc","total_hot","count","avg_like","avg_comment","avg_sentiment","lag_1_total_hot","lag_2_total_hot","lag_3_total_hot","lag_1_avg_like","lag_2_avg_like","lag_3_avg_like","lag_1_avg_comment","lag_2_avg_comment","lag_3_avg_comment","lag_1_avg_sentiment","lag_2_avg_sentiment","lag_3_avg_sentiment","total_hot_change_rate","rolling_mean_6_total_hot","rolling_std_6_total_hot","hour","day_of_week","is_weekend","month"],"feature_types":["int","float","int","float","float","float","float","float","float","float","float","float","float","float","float","float","float","float","float","float","float","int","int","int","int"],"gradient_booster":{"model":{"gbtree_model_param":{"num_parallel_tree":"1","num_trees":"21","size_leaf_vector":"0"},"tree_info":[0,0,0,0,0,0,0,0,0,0,0,0,0,0,0,0,0,0,0,0,0],"trees":[{"base_weights":[8.642202E-1,3.5643566E-1,1.0948944E0,1.2456747E0,1.740947E-1,-1.1818181E0,1.1065199E0,1.3144876E0,-7.1428573E-1,4.5169082E-1,-1.9805194E-1,1.1998616E0,7.7342826E-1,-0E0,1.3828996E0,1.4255765E-1,8.4679663E-1,-3.7431192E-1,1.0126582E0,1.21016E0,-2.3076923E-1,-2.6373628E-1,8.921053E-1,8E-1,-8E-1,1E-1,1.4319066E0,8.518519E-1,-2.1052632E-1,-9.411765E-1,9.2E-1,-4.199475E-2,-1.0813954E0,1.4426229E0,-2.3076923E-1,1.1039095E0,1.4179105E0,-1.0526316E0,8E-1,1.0625E0,-8.955224E-1,6.953271E-1,1.304721E0],"categories":[],"categories_nodes":[],"categories_segments":[],"categories_sizes":[],"default_left":[1,1,1,1,1,0,1,1,0,1,1,1,1,1,1,1,1,1,1,1,1,1,1,0,0,0,0,0,0,0,0,0,0,0,0,0,0,0,0,0,0,0,0],"id":0,"left_children":[1,3,5,7,9,-1,11,13,-1,15,17,19,21,23,25,27,29,31,33,35,37,39,41,-1,-1,-1,-1,-1,-1,-1,-1,-1,-1,-1,-1,-1,-1,-1,-1,-1,-1,-1,-1],"loss_changes":[1.5808728E2,6.845699E1,2.7332031E1,1.192234E1,3.7392757E1,0E0,2.6126709E1,6.3623123E0,0E0,2.4546928E1,3.3302486E1,1.1700317E1,2.6725449E1,4.8E0,3.1757507E0,3.0544357E1,1.3468163E1,3.1362957E1,1.1830694E1,1.1468506E1,7.317004E0,2.0881666E1,1.2612381E1,0E0,0E0,0E0,0E0,0E0,0E0,0E0,0E0,0E0,0E0,0E0,0E0,0E0,0E0,0E0,0E0,0E0,0E0,0E0,0E0],"parents":[2147483647,0,0,1,1,2,2,3,3,4,4,6,6,7,7,9,9,10,10,11,11,12,12,13,13,14,14,15,15,16,16,17,17,18,18,19,19,20,20,21,21,22,22],"right_children":[2,4,6,8,10,-1,12,14,-1,16,18,20,22,24,26,28,30,32,34,36,38,40,42,-1,-1,-1,-1,-1,-1,-1,-1,-1,-1,-1,-1,-1,-1,-1,-1,-1,-1,-1,-1],"split_conditions":[2.1083999E-1,1.2716666E-3,2.3E-4,9.39025E-1,5.093975E-1,-2.3636362E-2,1.65E1,5E0,-1.4285714E-2,9.265E2,7.3269E-1,3.54563E5,7.17E-3,-8.336855E-1,-8.5201824E-1,2.29E-3,2.7000002E-4,8.021285E-1,1.8776E-1,5.2128E-1,1.84605E5,-2.099215E-1,1.4799E4,1.6E-2,-1.6E-2,2E-3,2.863813E-2,1.7037038E-2,-4.210526E-3,-1.8823529E-2,1.84E-2,-8.39895E-4,-2.1627907E-2,2.8852457E-2,-4.6153846E-3,2.207819E-2,2.8358208E-2,-2.1052632E-2,1.6E-2,2.125E-2,-1.7910449E-2,1.3906542E-2,2.609442E-2],"split_indices":[19,19,1,5,16,0,0,21,0,11,8,10,8,5,16,1,1,5,19,19,13,5,9,0,0,0,0,0,0,0,0,0,0,0,0,0,0,0,0,0,0,0,0],"split_type":[0,0,0,0,0,0,0,0,0,0,0,0,0,0,0,0,0,0,0,0,0,0,0,0,0,0,0,0,0,0,0,0,0,0,0,0,0,0,0,0,0,0,0],"sum_hessian":[1.3605E3,4.2725E2,9.3325E2,7.025E1,3.57E2,3.5E0,9.2975E2,6.875E1,1.5E0,2.05E2,1.52E2,7.21E2,2.0875E2,3.5E0,6.525E1,1.1725E2,8.775E1,1.3425E2,1.775E1,7.165E2,4.5E0,2.075E1,1.88E2,1.75E0,1.75E0,3E0,6.225E1,3.85E1,7.875E1,2.25E0,8.55E1,9.325E1,4.1E1,1.325E1,4.5E0,4.84E2,2.325E2,2.75E0,1.75E0,6E0,1.475E1,1.3175E2,5.625E1],"tree_param":{"num_deleted":"0","num_feature":"25","num_nodes":"43","size_leaf_vector":"0"}},{"base_weights":[8.1083184E-1,3.7398663E-1,1.0260564E0,2.312638E-1,1.1309757E0,1.0950043E0,5.5010855E-1,4.3305373E-1,-3.8876352E-1,2.3429179E-1,1.4284912E0,1.1394575E0,2.3943198E-1,-8.756191E-2,1.2646437E0,2.2697257E-1,1.0359851E0,1.1966955E-1,-1.593767E0,8.291134E-1,-1.2833723E0,-6.202973E-1,1.5136793E0,-5.548423E-1,1.155436E0,-1.4901079E0,6.571011E-1,2.4687922E-1,-1.6265494E0,-6.206396E-1,1.3388181E0,-3.3146468E-1,4.2369467E-1,1.1675419E0,-1.1003705E0,-8.822062E-1,6.127915E-1,-1.8283937E0,6.178679E-1,-1.0086476E0,1.3559254E0,1.5948769E0,4.8193216E-1,-1.2704892E0,8.00392E-1,4.2305028E-1,1.1856887E0,-1.0086838E0,8.611412E-1,-9.8480284E-1,5.549436E-1,1.5002695E0,3.1732276E-1],"categories":[],"categories_nodes":[],"categories_segments":[],"categories_sizes":[],"default_left":[1,1,1,1,1,1,1,1,1,1,1,1,1,1,1,1,1,1,1,1,0,0,1,1,1,0,1,1,0,0,1,0,0,0,0,0,0,0,0,0,0,0,0,0,0,0,0,0,0,0,0,0,0],"id":1,"left_children":[1,3,5,7,9,11,13,15,17,19,21,23,25,27,29,31,33,35,37,39,-1,-1,41,43,45,-1,47,49,-1,-1,51,-1,-1,-1,-1,-1,-1,-1,-1,-1,-1,-1,-1,-1,-1,-1,-1,-1,-1,-1,-1,-1,-1],"loss_changes":[1.2502191E2,4.7193684E1,2.7486511E1,4.789927E1,1.717141E1,2.8531067E1,5.4912273E1,3.4711437E1,5.8552315E1,2.0179974E1,1.1355415E1,2.1694702E1,3.1696003E1,3.456007E1,9.921074E0,2.4274342E1,2.2906738E1,3.4292652E1,1.7523102E1,1.8398106E1,0E0,0E0,1.6544418E0,1.00273075E1,1.4519653E1,0E0,1.36425E1,2.146102E1,0E0,0E0,7.2500687E0,0E0,0E0,0E0,0E0,0E0,0E0,0E0,0E0,0E0,0E0,0E0,0E0,0E0,0E0,0E0,0E0,0E0,0E0,0E0,0E0,0E0,0E0],"parents":[2147483647,0,0,1,1,2,2,3,3,4,4,5,5,6,6,7,7,8,8,9,9,10,10,11,11,12,12,13,13,14,14,15,15,16,16,17,17,18,18,19,19,22,22,23,23,24,24,26,26,27,27,30,30],"right_children":[2,4,6,8,10,12,14,16,18,20,22,24,26,28,30,32,34,36,38,40,-1,-1,42,44,46,-1,48,50,-1,-1,52,-1,-1,-1,-1,-1,-1,-1,-1,-1,-1,-1,-1,-1,-1,-1,-1,-1,-1,-1,-1,-1,-1],"split_conditions":[3.6897036E-1,4.582E-1,1.75E1,8.6109054E-1,1.2725E2,1.00103E0,4.025E2,4.873E3,1.1325E2,7.74144E-1,-8.075435E-1,1.15E1,-1.2114E-2,3.363998E1,9.2930004E-2,6E0,9.344365E-1,2.5E0,9.53833E-1,6.5954995E-1,-2.5667446E-2,-1.2405946E-2,3.455055E-1,1.55E1,1.29E-3,-2.9802157E-2,9E0,-9.706253E-1,-3.2530986E-2,-1.2412792E-2,8E0,-6.6292933E-3,8.473894E-3,2.3350837E-2,-2.200741E-2,-1.7644124E-2,1.225583E-2,-3.6567874E-2,1.2357358E-2,-2.017295E-2,2.7118508E-2,3.1897537E-2,9.638643E-3,-2.5409784E-2,1.6007839E-2,8.461005E-3,2.3713775E-2,-2.0173676E-2,1.7222824E-2,-1.9696057E-2,1.1098872E-2,3.000539E-2,6.346455E-3],"split_indices":[20,8,0,17,12,6,14,3,4,16,5,3,16,18,8,0,5,22,17,8,0,0,20,0,7,0,21,18,0,0,24,0,0,0,0,0,0,0,0,0,0,0,0,0,0,0,0,0,0,0,0,0,0],"split_type":[0,0,0,0,0,0,0,0,0,0,0,0,0,0,0,0,0,0,0,0,0,0,0,0,0,0,0,0,0,0,0,0,0,0,0,0,0,0,0,0,0,0,0,0,0,0,0,0,0,0,0,0,0],"sum_hessian":[1.3433481E3,4.4596445E2,8.973837E2,3.7797287E2,6.7991554E1,7.8064417E2,1.1673958E2,2.8622842E2,9.174445E1,1.8248343E1,4.974321E1,7.4090106E2,3.974312E1,6.2245323E1,5.449425E1,2.1598665E2,7.0241776E1,6.5495895E1,2.6248564E1,1.3998653E1,4.2496896E0,1.2499229E0,4.8493286E1,5.9995103E0,7.3490155E2,6.498946E0,3.324417E1,5.224591E1,9.99941E0,1.249911E0,5.3244343E1,5.5246437E1,1.6074022E2,6.7242035E1,2.9997416E0,2.0748724E1,4.474717E1,2.4248724E1,1.9998392E0,2.4998116E0,1.1498842E1,4.3494118E1,4.9991703E0,4.249511E0,1.7499995E0,3.0996777E1,7.039048E2,2.4996223E0,3.074455E1,9.249334E0,4.299658E1,4.474529E1,8.499051E0],"tree_param":{"num_deleted":"0","num_feature":"25","num_nodes":"53","size_leaf_vector":"0"}},{"base_weights":[7.6214904E-1,1.1737334E0,5.8569145E-1,1.1984129E0,-1.1204216E0,-6.265124E-1,7.228321E-1,1.2480648E0,1.7066598E-1,-1.5628317E-1,-1.1255817E0,5.896639E-1,1.1057193E0,1.2671572E0,-1.9239978E-1,7.3667353E-1,-1.298139E0,1.5620494E-1,-1.542171E0,-1.4857178E0,2.2051732E-1,7.851907E-1,1.1650769E-1,-4.9374136E-1,1.1554675E0,1.0795525E0,1.5135959E0,-1.0249358E0,7.759505E-1,-8.0112123E-1,1.0617219E0,4.1925153E-1,-1.3357822E0,-1.660197E0,7.788246E-1,9.663094E-1,-1.0623808E0,1.0003066E0,4.18153E-1,4.6159452E-1,-4.5364657E-1,-1.2342471E0,7.719909E-1,9.377754E-1,1.5158236E0],"categories":[],"categories_nodes":[],"categories_segments":[],"categories_sizes":[],"default_left":[1,1,1,1,0,1,1,1,1,1,1,1,1,1,1,1,0,1,0,1,1,1,1,1,1,0,0,0,0,0,0,0,0,0,0,0,0,0,0,0,0,0,0,0,0],"id":2,"left_children":[1,3,5,7,-1,9,11,13,15,17,19,21,23,25,27,29,-1,31,-1,33,35,37,39,41,43,-1,-1,-1,-1,-1,-1,-1,-1,-1,-1,-1,-1,-1,-1,-1,-1,-1,-1,-1,-1],"loss_changes":[9.350177E1,2.4964111E1,1.5517139E2,1.8755981E1,0E0,2.1297855E1,4.040744E1,1.1229675E1,1.8878141E1,2.3583496E1,2.3219604E1,5.7145905E1,1.8351562E1,1.2394043E1,6.751788E0,1.0077099E1,0E0,1.7829937E1,0E0,1.7346985E1,1.2527244E1,3.3260193E1,3.6963142E1,9.1637E0,1.214032E1,0E0,0E0,0E0,0E0,0E0,0E0,0E0,0E0,0E0,0E0,0E0,0E0,0E0,0E0,0E0,0E0,0E0,0E0,0E0,0E0],"parents":[2147483647,0,0,1,1,2,2,3,3,5,5,6,6,7,7,8,8,9,9,10,10,11,11,12,12,13,13,14,14,15,15,17,17,19,19,20,20,21,21,22,22,23,23,24,24],"right_children":[2,4,6,8,-1,10,12,14,16,18,20,22,24,26,28,30,-1,32,-1,34,36,38,40,42,44,-1,-1,-1,-1,-1,-1,-1,-1,-1,-1,-1,-1,-1,-1,-1,-1,-1,-1,-1,-1],"split_conditions":[3.5E0,4.36E3,5.5E0,1.0026901E0,-2.2408433E-2,-6.525154E-1,6.9069E-1,9.5029247E-1,8.172E-2,8.9756846E-1,5.278E-1,1.75E1,1.37E-3,4.639E-1,1.3122101E0,2.4195E-1,-2.596278E-2,2.8297E-1,-3.084342E-2,1.3262501E0,2.7E1,2.25E0,1.595E2,9.35453E-1,9.05941E-1,2.159105E-2,3.0271918E-2,-2.0498717E-2,1.551901E-2,-1.6022425E-2,2.1234438E-2,8.385031E-3,-2.6715644E-2,-3.320394E-2,1.5576492E-2,1.9326188E-2,-2.1247616E-2,2.0006131E-2,8.36306E-3,9.231891E-3,-9.0729315E-3,-2.4684941E-2,1.5439818E-2,1.8755507E-2,3.0316472E-2],"split_indices":[0,4,0,6,0,18,8,17,7,16,1,0,1,6,7,8,0,6,0,8,9,14,4,5,5,0,0,0,0,0,0,0,0,0,0,0,0,0,0,0,0,0,0,0,0],"split_type":[0,0,0,0,0,0,0,0,0,0,0,0,0,0,0,0,0,0,0,0,0,0,0,0,0,0,0,0,0,0,0,0,0,0,0,0,0,0,0,0,0,0,0,0,0],"sum_hessian":[1.3164642E3,3.907979E2,9.256663E2,3.8779935E2,2.9985845E0,9.298421E1,8.326821E2,3.6905457E2,1.8744772E1,4.9743465E1,4.3240746E1,6.225464E2,2.1013571E2,3.64807E2,4.2475576E0,1.4496017E1,4.248755E0,4.174472E1,7.998744E0,3.4243282E1,8.997465E0,4.388292E2,1.8371721E2,5.4971204E0,2.046386E2,2.1438998E2,1.5041702E2,2.4987433E0,1.7488142E0,1.7498853E0,1.2746132E1,3.6995335E1,4.7493873E0,3.2494198E1,1.7490829E0,6.2483706E0,2.7490947E0,2.7363965E2,1.6518954E2,1.1523113E2,6.848608E1,3.7487342E0,1.7483864E0,1.3292839E2,7.1710205E1],"tree_param":{"num_deleted":"0","num_feature":"25","num_nodes":"45","size_leaf_vector":"0"}},{"base_weights":[7.550823E-1,2.504657E-1,9.97025E-1,1.0507729E0,9.159859E-2,1.834106E-1,1.0475055E0,1.2201293E0,-1.760115E-1,3.0001727E-1,-4.687573E-1,4.8973754E-1,-1.4986991E0,-1.1886531E0,1.0609577E0,7.2501993E-1,1.5372871E0,-1.2191485E0,7.6049757E-1,-6.9560635E-1,3.7851545E-1,-1.2852228E0,2.391103E-1,1.3049796E0,2.8001927E-3,1.245997E0,8.4521997E-1,1.106153E0,-1.2140467E0,8.106869E-1,-9.599528E-1,5.2794045E-1,-2.633576E-3,5.833141E-1,-1.5377716E0,5.289556E-1,-1.4443225E0,1.456616E0,1.7090382E-1,5.771423E-1,-1.5267339E0,7.72831E-1,1.369702E0,6.461564E-1,1.1532518E0],"categories":[],"categories_nodes":[],"categories_segments":[],"categories_sizes":[],"default_left":[1,1,1,1,1,1,1,1,1,1,1,1,0,0,1,1,0,0,0,1,1,1,1,1,1,1,1,0,0,0,0,0,0,0,0,0,0,0,0,0,0,0,0,0,0],"id":3,"left_children":[1,3,5,7,9,11,13,15,17,19,21,23,-1,-1,25,27,-1,-1,-1,29,31,33,35,37,39,41,43,-1,-1,-1,-1,-1,-1,-1,-1,-1,-1,-1,-1,-1,-1,-1,-1,-1,-1],"loss_changes":[1.6056976E2,5.4231308E1,3.5712097E1,1.5688232E1,4.2663147E1,2.9417871E1,2.7745544E1,6.5224533E0,1.1846617E1,2.1228144E1,5.8186104E1,1.8581406E1,0E0,0E0,3.0256104E1,2.4045494E1,0E0,0E0,0E0,9.493311E0,1.4456043E1,2.4204887E1,2.7530296E1,1.738699E0,3.004489E1,2.286029E1,2.1760193E1,0E0,0E0,0E0,0E0,0E0,0E0,0E0,0E0,0E0,0E0,0E0,0E0,0E0,0E0,0E0,0E0,0E0,0E0],"parents":[2147483647,0,0,1,1,2,2,3,3,4,4,5,5,6,6,7,7,8,8,9,9,10,10,11,11,14,14,15,15,19,19,20,20,21,21,22,22,23,23,24,24,25,25,26,26],"right_children":[2,4,6,8,10,12,14,16,18,20,22,24,-1,-1,26,28,-1,-1,-1,30,32,34,36,38,40,42,44,-1,-1,-1,-1,-1,-1,-1,-1,-1,-1,-1,-1,-1,-1,-1,-1,-1,-1],"split_conditions":[3.7162676E-1,8.935001E-3,2.1078E-1,9.23406E-1,8.6109054E-1,3.575E2,2.3E-4,5.6535E3,5.285E2,3.9874103E-2,9.295E2,2E0,-2.997398E-2,-2.3773061E-2,1.085E2,5.405E2,3.0745741E-2,-2.438297E-2,1.5209951E-2,8E-5,1.5682E-1,-8.91006E-1,2.29E2,8.93035E-1,1.9347167E-1,5.32E-3,5.11855E-1,2.212306E-2,-2.4280934E-2,1.6213737E-2,-1.9199055E-2,1.0558809E-2,-5.267152E-5,1.1666282E-2,-3.075543E-2,1.0579111E-2,-2.8886449E-2,2.913232E-2,3.4180763E-3,1.15428455E-2,-3.0534677E-2,1.545662E-2,2.739404E-2,1.2923127E-2,2.3065034E-2],"split_indices":[20,19,19,5,17,12,1,9,12,20,11,0,0,0,4,9,0,0,0,6,6,16,4,17,19,1,19,0,0,0,0,0,0,0,0,0,0,0,0,0,0,0,0,0,0],"split_type":[0,0,0,0,0,0,0,0,0,0,0,0,0,0,0,0,0,0,0,0,0,0,0,0,0,0,0,0,0,0,0,0,0,0,0,0,0,0,0,0,0,0,0,0,0],"sum_hessian":[1.3223934E3,4.3054617E2,8.918472E2,6.892992E1,3.6161627E2,5.3221752E1,8.386254E2,6.093616E1,7.9937534E0,2.6490793E2,9.6708336E1,4.647348E1,6.748272E0,3.7477527E0,8.348777E2,2.6974792E1,3.396137E1,3.7486215E0,4.245132E0,1.7745268E1,2.4716267E2,4.447977E1,5.222856E1,1.5737914E1,3.0735565E1,4.4302466E2,3.9185303E2,2.347718E1,3.4976115E0,1.7497728E0,1.5995496E1,1.7794357E2,6.92191E1,4.7484093E0,3.973136E1,4.5980457E1,6.2481046E0,1.2991171E1,2.7467432E0,2.3488016E1,7.2475495E0,9.566127E1,3.473634E2,2.4277794E2,1.490751E2],"tree_param":{"num_deleted":"0","num_feature":"25","num_nodes":"45","size_leaf_vector":"0"}},{"base_weights":[7.8173006E-1,2.4296711E-1,1.0146675E0,4.750653E-1,-2.3726854E-1,8.860178E-1,1.3002726E0,6.7317694E-1,-1.2637176E-1,6.1675254E-2,-8.998603E-1,1.0955226E0,6.3595307E-1,1.0419736E0,1.4510463E0,2.350447E-1,8.633743E-1,-1.4977365E0,7.42902E-2,-6.165026E-1,6.541512E-1,-1.3966208E0,3.8519707E-1,-1.0694766E0,1.1203234E0,7.810802E-1,-2.8769037E-1,1.1572617E0,8.4057964E-2,1.4824896E0,-0E0,4.4761956E-1,-1.4267222E0,9.038724E-1,-8.7486714E-1,3.7284607E-1,-1.0978687E0,1.1120661E0,-1.0761242E0,9.5298237E-1,-7.9906267E-1,-1.7780138E0,-3.011011E-1,1.1000468E0,-1.0977901E0,7.441796E-1,1.2843403E0,9.035036E-1,1.1316968E-1,-1.6719694E0,2.339701E-1,6.4799154E-1,1.46895E0,-1.274529E0,8.738751E-1,1.6400814E-1,1.4992692E0,-8.2047945E-1,7.5540644E-1],"categories":[],"categories_nodes":[],"categories_segments":[],"categories_sizes":[],"default_left":[1,1,1,1,1,1,1,1,1,1,1,1,1,1,1,1,1,0,1,1,1,1,1,0,1,1,1,1,1,1,1,0,0,0,0,0,0,0,0,0,0,0,0,0,0,0,0,0,0,0,0,0,0,0,0,0,0,0,0],"id":4,"left_children":[1,3,5,7,9,11,13,15,17,19,21,23,25,27,29,31,33,-1,35,37,39,41,43,-1,45,47,49,51,53,55,57,-1,-1,-1,-1,-1,-1,-1,-1,-1,-1,-1,-1,-1,-1,-1,-1,-1,-1,-1,-1,-1,-1,-1,-1,-1,-1,-1,-1],"loss_changes":[1.6630676E2,4.5595478E1,3.0778564E1,3.3218338E1,2.6856821E1,3.1729218E1,6.765564E0,1.6365654E1,1.9980799E1,3.816924E1,2.8374298E1,2.1168945E1,4.112516E1,1.1637749E1,8.240845E0,2.4265291E1,1.1690132E1,0E0,2.2141869E1,3.7310738E1,2.3733757E1,1.083493E1,1.6185331E1,0E0,1.844513E1,2.0682373E1,3.179346E1,1.2915192E1,1.7839323E1,2.4180908E0,4.6613398E0,0E0,0E0,0E0,0E0,0E0,0E0,0E0,0E0,0E0,0E0,0E0,0E0,0E0,0E0,0E0,0E0,0E0,0E0,0E0,0E0,0E0,0E0,0E0,0E0,0E0,0E0,0E0,0E0],"parents":[2147483647,0,0,1,1,2,2,3,3,4,4,5,5,6,6,7,7,8,8,9,9,10,10,11,11,12,12,13,13,14,14,15,15,16,16,18,18,19,19,20,20,21,21,22,22,24,24,25,25,26,26,27,27,28,28,29,29,30,30],"right_children":[2,4,6,8,10,12,14,16,18,20,22,24,26,28,30,32,34,-1,36,38,40,42,44,-1,46,48,50,52,54,56,58,-1,-1,-1,-1,-1,-1,-1,-1,-1,-1,-1,-1,-1,-1,-1,-1,-1,-1,-1,-1,-1,-1,-1,-1,-1,-1,-1,-1],"split_conditions":[2.1127E-1,1.799436E0,5.0737834E-1,8.62509E-1,4.59E-3,7.752E-2,6.49009E-1,2.5E0,5.25E1,8E2,1.455E4,2.74817E-1,4.8425E2,1.0114601E0,3.48803E5,9.145645E-1,9.442705E-1,-2.9954728E-2,9.027238E-1,6.9999995E-5,3.1976002E-1,5.691E3,1.81E2,-2.1389531E-2,2.575E2,2.1015E-1,7.73E2,5.6916E-1,1.07043E0,2.62E-3,6.30654E5,8.952391E-3,-2.8534442E-2,1.8077446E-2,-1.7497342E-2,7.456921E-3,-2.1957373E-2,2.2241322E-2,-2.1522483E-2,1.9059647E-2,-1.5981253E-2,-3.5560276E-2,-6.0220216E-3,2.2000935E-2,-2.1955801E-2,1.4883592E-2,2.5686804E-2,1.8070072E-2,2.2633935E-3,-3.3439387E-2,4.679402E-3,1.295983E-2,2.9379E-2,-2.5490578E-2,1.7477501E-2,3.2801628E-3,2.9985385E-2,-1.6409589E-2,1.5108128E-2],"split_indices":[19,18,19,16,6,1,16,22,10,10,3,20,14,6,10,5,15,0,15,7,7,10,13,0,3,6,10,6,6,6,10,0,0,0,0,0,0,0,0,0,0,0,0,0,0,0,0,0,0,0,0,0,0,0,0,0,0,0,0],"split_type":[0,0,0,0,0,0,0,0,0,0,0,0,0,0,0,0,0,0,0,0,0,0,0,0,0,0,0,0,0,0,0,0,0,0,0,0,0,0,0,0,0,0,0,0,0,0,0,0,0,0,0,0,0,0,0,0,0,0,0],"sum_hessian":[1.3321123E3,4.0397885E2,9.2813336E2,2.7306775E2,1.3091112E2,6.4675854E2,2.8137485E2,2.0585309E2,6.721465E1,9.094044E1,3.997068E1,3.4715216E2,2.9960638E2,1.1076134E2,1.706135E2,6.446169E1,1.413914E2,7.247507E0,5.9967148E1,4.197207E1,4.896837E1,2.8982477E1,1.0988204E1,2.7492344E0,3.4440292E2,2.5965778E2,3.9948605E1,9.802548E1,1.2735859E1,1.6711859E2,3.4949024E0,5.87132E1,5.7484927E0,1.3939148E2,1.9999224E0,4.9220726E1,1.074642E1,7.991252E0,3.3980816E1,4.1472664E1,7.4957047E0,2.0235374E1,8.747102E0,7.990241E0,2.9979632E0,1.088644E2,2.3553853E2,2.1820773E2,4.1450035E1,9.989294E0,2.995931E1,4.0163723E1,5.7861755E1,3.9981194E0,8.73774E0,2.7453458E0,1.6437325E2,1.7490485E0,1.745854E0],"tree_param":{"num_deleted":"0","num_feature":"25","num_nodes":"59","size_leaf_vector":"0"}},{"base_weights":[7.1662444E-1,2.3844385E-1,9.3115056E-1,1.148696E0,2.5815684E-2,1.1330036E0,7.5968856E-1,1.201467E0,-6.3187236E-1,3.038412E-1,-6.227683E-1,1.161426E0,-5.7415664E-1,-1.4144531E-1,8.1075627E-1,1.2730474E0,-2.4558548E-2,5.6841624E-1,-1.0118048E-1,-1.0163386E0,2.544838E-1,1.18565E0,-7.363703E-2,-1.293943E0,7.5111806E-1,7.381102E-1,-9.110882E-1,-5.1915216E-1,8.438065E-1,1.369405E-1,1.3646297E0,7.6421535E-1,-8.765235E-1,-1.5607952E-1,8.00856E-1,-1.2746115E0,3.3045495E-1,-5.0274736E-1,-1.6049292E0,7.152929E-1,-1.3898013E0,1.1958238E0,-6.245077E-1,-1.2352732E0,9.767447E-1,1.2128649E0,-8.991675E-1,-1.6353648E0,3.4629816E-1,-1.4674574E0,8.75026E-1,-4.5848414E-1,8.752247E-1],"categories":[],"categories_nodes":[],"categories_segments":[],"categories_sizes":[],"default_left":[1,1,1,1,1,1,1,1,0,1,1,1,1,1,1,1,1,1,1,1,1,1,1,0,0,1,1,1,1,0,0,0,0,0,0,0,0,0,0,0,0,0,0,0,0,0,0,0,0,0,0,0,0],"id":5,"left_children":[1,3,5,7,9,11,13,15,-1,17,19,21,23,25,27,29,31,33,35,37,39,41,43,-1,-1,45,47,49,51,-1,-1,-1,-1,-1,-1,-1,-1,-1,-1,-1,-1,-1,-1,-1,-1,-1,-1,-1,-1,-1,-1,-1,-1],"loss_changes":[1.3309222E2,7.838138E1,2.8520569E1,9.022064E0,6.035488E1,2.1447266E1,2.3327454E1,7.3194656E0,0E0,2.5564297E1,3.548591E1,1.2779724E1,9.598153E0,2.0187366E1,2.1650513E1,6.3494186E0,5.257203E0,2.4718277E1,4.8888863E1,1.8477196E1,2.6072527E1,9.062927E0,1.3808302E1,0E0,0E0,1.3011796E1,1.6325489E1,1.9050663E1,1.9779144E1,0E0,0E0,0E0,0E0,0E0,0E0,0E0,0E0,0E0,0E0,0E0,0E0,0E0,0E0,0E0,0E0,0E0,0E0,0E0,0E0,0E0,0E0,0E0,0E0],"parents":[2147483647,0,0,1,1,2,2,3,3,4,4,5,5,6,6,7,7,9,9,10,10,11,11,12,12,13,13,14,14,15,15,16,16,17,17,18,18,19,19,20,20,21,21,22,22,25,25,26,26,27,27,28,28],"right_children":[2,4,6,8,10,12,14,16,-1,18,20,22,24,26,28,30,32,34,36,38,40,42,44,-1,-1,46,48,50,52,-1,-1,-1,-1,-1,-1,-1,-1,-1,-1,-1,-1,-1,-1,-1,-1,-1,-1,-1,-1,-1,-1,-1,-1],"split_conditions":[2.1083833E-1,8.935001E-3,6.5E0,2.05E1,8.10956E-1,4.3315E3,1.045E2,9.24844E-1,-1.2637447E-2,3.25E1,1.5777999E-1,7.8269745E2,1.3590701E0,3.898829E-1,2.7839708E-1,-2.886735E-1,3.67E-3,-9.822738E-1,1.1355E3,8.5700005E-3,1.031E-2,3.54563E5,5.5E0,-2.587886E-2,1.5022361E-2,1.18E-3,9.074495E-1,4.9493998E-1,5.85E1,2.73881E-3,2.7292594E-2,1.5284306E-2,-1.753047E-2,-3.1215902E-3,1.601712E-2,-2.5492229E-2,6.609099E-3,-1.0054947E-2,-3.2098584E-2,1.4305857E-2,-2.7796024E-2,2.3916475E-2,-1.2490154E-2,-2.4705464E-2,1.9534893E-2,2.4257297E-2,-1.7983349E-2,-3.2707296E-2,6.925963E-3,-2.9349148E-2,1.750052E-2,-9.169683E-3,1.7504495E-2],"split_indices":[19,19,0,0,16,4,10,17,0,4,8,18,6,20,20,15,7,18,3,8,1,10,22,0,0,7,16,1,3,0,0,0,0,0,0,0,0,0,0,0,0,0,0,0,0,0,0,0,0,0,0,0,0],"split_type":[0,0,0,0,0,0,0,0,0,0,0,0,0,0,0,0,0,0,0,0,0,0,0,0,0,0,0,0,0,0,0,0,0,0,0,0,0,0,0,0,0,0,0,0,0,0,0,0,0,0,0,0,0],"sum_hessian":[1.3054498E3,4.0631772E2,8.991321E2,7.4827614E1,3.3149008E2,4.064768E2,4.9265527E2,7.357824E1,1.2493749E0,2.333115E2,9.8178604E1,4.0073718E2,5.739616E0,2.5706755E1,4.6694852E2,6.983226E1,3.7459812E0,1.4138275E2,9.192875E1,6.79475E1,3.0231098E1,3.9350403E2,7.2331595E0,3.9946146E0,1.7450011E0,1.17318125E1,1.3974942E1,1.0242826E1,4.567057E2,5.9888477E0,6.384341E1,1.7473493E0,1.9986321E0,3.3978977E1,1.0740377E2,2.3982655E1,6.794609E1,3.8719505E1,2.9227997E1,2.4733587E1,5.497512E0,3.922544E2,1.24965E0,3.4935503E0,3.7396092E0,9.733307E0,1.9985051E0,8.738088E0,5.236854E0,6.247116E0,3.9957101E0,9.743312E0,4.469624E2],"tree_param":{"num_deleted":"0","num_feature":"25","num_nodes":"53","size_leaf_vector":"0"}},{"base_weights":[7.3409927E-1,4.6112156E-1,9.28182E-1,1.8973306E-1,9.424892E-1,1.047733E0,5.459696E-1,-3.3733493E-1,4.3218178E-1,1.0502427E0,-0E0,2.5421435E-1,1.0792367E0,2.3796165E-1,1.1076816E0,4.6670315E-1,-9.490094E-1,2.4872261E-1,9.1626614E-1,1.1661166E0,2.335146E-1,-7.914762E-1,1.2394232E0,7.1087897E-1,-1.3170538E0,1.1980734E0,8.0029356E-1,4.6194118E-1,-8.7290734E-1,-9.7207516E-1,1.2188241E0,7.177715E-1,-1.3745669E0,-1.0975302E0,6.043805E-1,4.3875554E-1,-9.9030536E-1,1.0775545E0,-5.287388E-1,1.2321657E0,2.4305959E-1,-8.845508E-1,8.508006E-1,7.577444E-1,-1.5910407E0,1.212911E0,-4.8140404E-1,7.6932365E-1,1.2562324E0,-1.4277213E0,8.9166176E-1,-6.1221427E-1,6.705284E-1,-1.7152559E0,4.438508E-1,1.2838334E0,-6.338079E-1],"categories":[],"categories_nodes":[],"categories_segments":[],"categories_sizes":[],"default_left":[1,1,1,1,1,1,1,1,1,1,1,1,1,1,1,1,1,1,1,1,1,1,0,1,0,1,1,1,1,0,1,0,0,0,0,0,0,0,0,0,0,0,0,0,0,0,0,0,0,0,0,0,0,0,0,0,0],"id":6,"left_children":[1,3,5,7,9,11,13,15,17,19,21,23,25,27,29,31,33,35,37,39,41,43,-1,45,-1,47,49,51,53,-1,55,-1,-1,-1,-1,-1,-1,-1,-1,-1,-1,-1,-1,-1,-1,-1,-1,-1,-1,-1,-1,-1,-1,-1,-1,-1,-1],"loss_changes":[6.916565E1,7.219352E1,3.3566467E1,4.6480152E1,2.0494965E1,1.35026245E1,3.1727406E1,5.7309914E1,2.106126E1,1.5803879E1,2.3955988E1,2.0013184E1,1.5813843E1,3.1961311E1,1.781321E1,2.4918552E1,1.6775284E1,4.3904743E1,1.7004429E1,8.21843E0,1.9031862E1,2.1398912E1,0E0,1.437951E1,0E0,6.8031006E0,3.8124443E1,2.4728603E1,2.5968155E1,0E0,9.664307E0,0E0,0E0,0E0,0E0,0E0,0E0,0E0,0E0,0E0,0E0,0E0,0E0,0E0,0E0,0E0,0E0,0E0,0E0,0E0,0E0,0E0,0E0,0E0,0E0,0E0,0E0],"parents":[2147483647,0,0,1,1,2,2,3,3,4,4,5,5,6,6,7,7,8,8,9,9,10,10,11,11,12,12,13,13,14,14,15,15,16,16,17,17,18,18,19,19,20,20,21,21,23,23,25,25,26,26,27,27,28,28,30,30],"right_children":[2,4,6,8,10,12,14,16,18,20,22,24,26,28,30,32,34,36,38,40,42,44,-1,46,-1,48,50,52,54,-1,56,-1,-1,-1,-1,-1,-1,-1,-1,-1,-1,-1,-1,-1,-1,-1,-1,-1,-1,-1,-1,-1,-1,-1,-1,-1,-1],"split_conditions":[1.35E3,8.09525E3,1.65E1,5.5E0,1.75E1,4.65E1,1.639925E4,3.5E0,1.0875E2,3.81E2,4.585E2,9.95E1,1.3275E2,7.604E3,4.09E2,2.9749E-1,4.135E2,1.577E-2,9.01496E-1,8.7E2,2.54585E4,6.6617E-1,2.4788463E-2,8.3214575E-1,-2.6341075E-2,1.92E-3,2.593E3,1.1E-2,9.0209997E-1,-1.9441502E-2,7.54E2,1.4355429E-2,-2.7491339E-2,-2.1950604E-2,1.208761E-2,8.77511E-3,-1.9806108E-2,2.155109E-2,-1.0574776E-2,2.4643313E-2,4.861192E-3,-1.7691016E-2,1.701601E-2,1.5154887E-2,-3.1820815E-2,2.425822E-2,-9.628081E-3,1.5386472E-2,2.5124647E-2,-2.8554425E-2,1.7833235E-2,-1.2244285E-2,1.3410568E-2,-3.4305118E-2,8.877016E-3,2.5676668E-2,-1.2676158E-2],"split_indices":[9,3,0,0,0,3,9,0,12,14,14,13,4,9,12,1,12,6,15,13,11,1,0,15,0,7,3,8,6,0,4,0,0,0,0,0,0,0,0,0,0,0,0,0,0,0,0,0,0,0,0,0,0,0,0,0,0],"split_type":[0,0,0,0,0,0,0,0,0,0,0,0,0,0,0,0,0,0,0,0,0,0,0,0,0,0,0,0,0,0,0,0,0,0,0,0,0,0,0,0,0,0,0,0,0,0,0,0,0,0,0,0,0,0,0,0,0],"sum_hessian":[1.3327666E3,5.576953E2,7.750713E2,3.590787E2,1.9861664E2,5.8675244E2,1.883189E2,1.122372E2,2.468415E2,1.7814339E2,2.047325E1,2.3704037E1,5.630484E2,1.240403E2,6.427859E1,4.8344963E1,6.3892235E1,1.8194728E2,6.4894226E1,1.5472401E2,2.3419367E1,1.2992359E1,7.4808903E0,1.9461285E1,4.2427526E0,3.889595E2,1.7408888E2,1.04573944E2,1.9466354E1,2.2466671E0,6.2031918E1,4.3856735E1,4.488228E0,5.914603E1,4.746202E0,1.5922226E2,2.2725018E1,5.9146973E1,5.7472568E0,1.4326154E2,1.1462477E1,7.7344084E0,1.5684958E1,4.245544E0,8.746816E0,1.3965587E1,5.495698E0,5.088525E1,3.3807428E2,5.490033E0,1.6859885E2,1.5985695E1,8.858825E1,1.1734244E1,7.7321095E0,6.0782967E1,1.2489544E0],"tree_param":{"num_deleted":"0","num_feature":"25","num_nodes":"57","size_leaf_vector":"0"}},{"base_weights":[7.3483086E-1,2.7787417E-1,9.5670444E-1,1.0846606E0,1.323423E-1,-1.3469111E0,9.738269E-1,1.2462009E0,-9.592226E-2,2.4180545E-2,1.1567407E0,1.1436431E0,7.604805E-1,1.3944908E0,4.2875987E-1,-1.1327794E0,7.27252E-1,3.5352176E-1,-3.187021E-1,1.3697745E0,3.1594992E-1,7.7974945E-1,1.2585595E0,2.0513159E-1,9.3172526E-1,-0E0,1.491123E0,9.009368E-1,-8.9669895E-1,-1.2314374E0,4.9244744E-1,-0E0,-1.3169811E0,1.4727069E0,1.5663745E-1,9.8572165E-1,-9.7441494E-1,8.3228064E-1,-9.8021847E-1,1.7842907E-1,1.2732246E0,-1.6517146E0,4.5263535E-1,1.0093912E0,6.714497E-2],"categories":[],"categories_nodes":[],"categories_segments":[],"categories_sizes":[],"default_left":[1,1,1,1,1,0,1,1,1,1,1,1,1,1,1,0,0,1,1,1,1,1,1,1,1,0,0,0,0,0,0,0,0,0,0,0,0,0,0,0,0,0,0,0,0],"id":7,"left_children":[1,3,5,7,9,-1,11,13,15,17,19,21,23,25,27,-1,-1,29,31,33,35,37,39,41,43,-1,-1,-1,-1,-1,-1,-1,-1,-1,-1,-1,-1,-1,-1,-1,-1,-1,-1,-1,-1],"loss_changes":[1.3426288E2,5.077695E1,3.7837585E1,1.3487244E1,4.097483E1,0E0,2.9634888E1,5.0406265E0,9.944012E0,3.8891483E1,4.630558E0,1.7572998E1,3.7348373E1,6.3311234E0,9.416224E0,0E0,0E0,3.9655243E1,5.3475E1,2.1157036E0,1.0766487E1,1.3047089E1,4.6691284E0,4.6010845E1,1.9910797E1,0E0,0E0,0E0,0E0,0E0,0E0,0E0,0E0,0E0,0E0,0E0,0E0,0E0,0E0,0E0,0E0,0E0,0E0,0E0,0E0],"parents":[2147483647,0,0,1,1,2,2,3,3,4,4,6,6,7,7,8,8,9,9,10,10,11,11,12,12,13,13,14,14,17,17,18,18,19,19,20,20,21,21,22,22,23,23,24,24],"right_children":[2,4,6,8,10,-1,12,14,16,18,20,22,24,26,28,-1,-1,30,32,34,36,38,40,42,44,-1,-1,-1,-1,-1,-1,-1,-1,-1,-1,-1,-1,-1,-1,-1,-1,-1,-1,-1,-1],"split_conditions":[3.7156916E-1,1.9272926E-3,2.3E-4,9.2424154E-1,6.737E-1,-2.693822E-2,1.1325E2,1.65E1,5.285E2,2.5E0,3.477155E-1,2.625E2,8.07475E3,1.5E0,4.515E2,-2.2655586E-2,1.454504E-2,-9.0833247E-1,8.6109054E-1,2.12645E4,2.1072476E-1,9.45477E-1,5.2E-4,2.835E2,1.75E1,-0E0,2.982246E-2,1.8018736E-2,-1.7933978E-2,-2.462875E-2,9.848949E-3,-0E0,-2.633962E-2,2.9454138E-2,3.1327489E-3,1.9714432E-2,-1.94883E-2,1.6645612E-2,-1.9604368E-2,3.5685813E-3,2.5464492E-2,-3.303429E-2,9.052707E-3,2.0187823E-2,1.3428993E-3],"split_indices":[20,20,1,5,8,0,4,0,12,4,20,3,3,22,4,0,0,5,17,11,17,15,8,10,0,0,0,0,0,0,0,0,0,0,0,0,0,0,0,0,0,0,0,0,0],"split_type":[0,0,0,0,0,0,0,0,0,0,0,0,0,0,0,0,0,0,0,0,0,0,0,0,0,0,0,0,0,0,0,0,0,0,0,0,0,0,0,0,0,0,0,0,0],"sum_hessian":[1.3335986E3,4.380916E2,8.955071E2,6.445118E1,3.736404E2,5.245616E0,8.902615E2,5.6968483E1,7.482697E0,3.4025018E2,3.339023E1,4.8954013E2,4.007213E2,4.6508068E1,1.0460417E1,3.247447E0,4.23525E0,1.7426428E2,1.6598592E2,2.5161901E1,8.228328E0,1.2227288E2,3.6726727E2,9.616678E1,3.0455453E2,3.2359695E0,4.32721E1,8.463281E0,1.9971362E0,1.2486193E1,1.6177808E2,1.27317154E2,3.8668762E1,2.2419558E1,2.7423444E0,5.9826603E0,2.2456672E0,1.20028595E2,2.2442815E0,5.729144E0,3.6153812E2,9.7385025E0,8.6428276E1,2.7861322E2,2.5941338E1],"tree_param":{"num_deleted":"0","num_feature":"25","num_nodes":"45","size_leaf_vector":"0"}},{"base_weights":[7.33902E-1,3.5755837E-1,9.2286366E-1,1.1455436E0,1.9154336E-1,1.1568015E0,7.8940743E-1,1.2266735E0,-8.362307E-1,-1.0072259E0,2.8407386E-1,1.1697257E0,-6.5809935E-1,6.3587916E-1,1.2551328E0,-0E0,1.2903636E0,2.7332085E-1,-1.4035684E0,1.438364E-1,8.9562726E-1,4.278755E-1,1.211079E0,6.6575265E-1,-1.3888422E0,-6.503523E-1,1.2854149E0,7.2511625E-1,-8.063412E-1,1.3254571E0,1.2590267E-1,9.228226E-1,-7.78254E-1,-1.7076156E0,1.6915114E-1,2.4456859E-1,-8.311193E-1,-9.772597E-1,1.002937E0,8.250593E-1,-1.1273203E0,1.2593801E0,7.2483087E-1,4.0972805E-1,8.63116E-1,1.3297843E0,1.2489695E-1],"categories":[],"categories_nodes":[],"categories_segments":[],"categories_sizes":[],"default_left":[1,1,1,1,1,1,1,1,0,1,1,1,0,1,1,1,1,1,1,1,1,1,1,1,0,0,1,0,0,0,0,0,0,0,0,0,0,0,0,0,0,0,0,0,0,0,0],"id":8,"left_children":[1,3,5,7,9,11,13,15,-1,17,19,21,-1,23,25,27,29,31,33,35,37,39,41,43,-1,-1,45,-1,-1,-1,-1,-1,-1,-1,-1,-1,-1,-1,-1,-1,-1,-1,-1,-1,-1,-1,-1],"loss_changes":[9.373578E1,5.7872154E1,2.4909485E1,1.4712433E1,4.1842426E1,9.224823E0,3.841382E1,6.304039E0,0E0,1.500902E1,2.927172E1,7.822693E0,0E0,2.7837677E1,1.0018585E1,4.402633E0,1.8848572E0,6.7984753E0,1.1485413E1,2.84039E1,1.4898144E1,1.4303346E1,4.160034E0,2.0429764E1,0E0,0E0,6.041214E0,0E0,0E0,0E0,0E0,0E0,0E0,0E0,0E0,0E0,0E0,0E0,0E0,0E0,0E0,0E0,0E0,0E0,0E0,0E0,0E0],"parents":[2147483647,0,0,1,1,2,2,3,3,4,4,5,5,6,6,7,7,9,9,10,10,11,11,13,13,14,14,15,15,16,16,17,17,18,18,19,19,20,20,21,21,22,22,23,23,26,26],"right_children":[2,4,6,8,10,12,14,16,-1,18,20,22,-1,24,26,28,30,32,34,36,38,40,42,44,-1,-1,46,-1,-1,-1,-1,-1,-1,-1,-1,-1,-1,-1,-1,-1,-1,-1,-1,-1,-1,-1,-1],"split_conditions":[3.6897036E-1,8.935001E-3,2.5E0,9.381115E-1,4.0435396E-2,7.8269745E2,5.174967E-1,5E0,-1.6724614E-2,3E0,6.2295E3,4.0800003E-3,-1.3161987E-2,1.02495E0,-9.201995E-1,-8.336855E-1,2.13786E5,2.2302E-2,7.982E-2,2.4788E-1,5E-1,8.698405E-1,1.354E3,1.782E3,-2.7776845E-2,-1.3007046E-2,9.37611E-1,1.4502325E-2,-1.6126823E-2,2.6509142E-2,2.5180534E-3,1.8456452E-2,-1.5565079E-2,-3.415231E-2,3.3830227E-3,4.891372E-3,-1.6622385E-2,-1.9545194E-2,2.0058738E-2,1.6501186E-2,-2.2546405E-2,2.5187602E-2,1.4496617E-2,8.194561E-3,1.7262321E-2,2.6595686E-2,2.497939E-3],"split_indices":[20,19,0,5,20,18,19,21,0,21,11,8,0,6,17,5,10,16,1,8,22,5,14,9,0,0,16,0,0,0,0,0,0,0,0,0,0,0,0,0,0,0,0,0,0,0,0],"split_type":[0,0,0,0,0,0,0,0,0,0,0,0,0,0,0,0,0,0,0,0,0,0,0,0,0,0,0,0,0,0,0,0,0,0,0,0,0,0,0,0,0,0,0,0,0,0,0],"sum_hessian":[1.334379E3,4.4885397E2,8.85525E2,7.553188E1,3.7332208E2,3.1473608E2,5.7078894E2,7.353582E1,1.9960626E0,2.4947186E1,3.483749E2,3.1349014E2,1.2459385E0,4.336415E2,1.3714742E2,3.4864964E0,7.0049324E1,5.7449675E0,1.9202217E1,2.8606442E2,6.2310463E1,1.8389013E1,2.9510114E2,4.2890265E2,4.738862E0,1.2465258E0,1.359009E2,1.7380276E0,1.7484689E0,6.731475E1,2.7345762E0,3.996744E0,1.7482235E0,1.6214008E1,2.9882092E0,2.610989E2,2.4965536E1,2.245543E0,6.006492E1,1.5652073E1,2.7369397E0,2.6460822E2,3.0492918E1,1.9048557E2,2.3841708E2,1.3020047E2,5.7004128E0],"tree_param":{"num_deleted":"0","num_feature":"25","num_nodes":"47","size_leaf_vector":"0"}},{"base_weights":[7.1442735E-1,2.7626032E-1,9.256054E-1,1.0603113E0,1.1186485E-1,-7.55223E-1,9.420849E-1,-9.8866206E-1,1.1655388E0,2.9432762E-1,-4.4958875E-1,7.9779196E-1,-1.3768413E0,1.1162342E0,7.3579085E-1,-2.972635E-1,1.2785128E0,7.471645E-1,8.581945E-2,-8.0437616E-2,-1.6951417E0,5.177998E-1,1.1904322E0,-9.954838E-1,7.793275E-1,-1.072482E0,7.133201E-1,1.3397388E0,-0E0,8.49513E-1,-1.1499331E0,-1.087511E0,2.2462566E-1,-4.5527345E-1,1.2390928E0,-2.6344678E-1,7.43341E-1,1.2004658E0,-6.9016165E-1,-1.5470656E0,7.287168E-1,2.661461E-1,9.0549475E-1],"categories":[],"categories_nodes":[],"categories_segments":[],"categories_sizes":[],"default_left":[1,1,1,1,1,1,1,0,1,1,1,0,0,1,1,1,1,1,1,1,0,1,1,1,1,0,0,0,0,0,0,0,0,0,0,0,0,0,0,0,0,0,0],"id":9,"left_children":[1,3,5,7,9,11,13,-1,15,17,19,-1,-1,21,23,25,27,29,31,33,-1,35,37,39,41,-1,-1,-1,-1,-1,-1,-1,-1,-1,-1,-1,-1,-1,-1,-1,-1,-1,-1],"loss_changes":[1.2166974E2,5.526628E1,2.6272888E1,1.849121E1,3.7322655E1,1.1650997E1,2.9271545E1,0E0,1.3176865E1,2.5464815E1,3.977509E1,0E0,0E0,1.9021912E1,3.2563675E1,6.7856774E0,5.036133E0,1.8469341E1,3.1267525E1,3.5895557E1,0E0,1.0626541E1,9.8497925E0,1.2863311E1,2.5099716E1,0E0,0E0,0E0,0E0,0E0,0E0,0E0,0E0,0E0,0E0,0E0,0E0,0E0,0E0,0E0,0E0,0E0,0E0],"parents":[2147483647,0,0,1,1,2,2,3,3,4,4,5,5,6,6,8,8,9,9,10,10,13,13,14,14,15,15,16,16,17,17,18,18,19,19,21,21,22,22,23,23,24,24],"right_children":[2,4,6,8,10,12,14,-1,16,18,20,-1,-1,22,24,26,28,30,32,34,-1,36,38,40,42,-1,-1,-1,-1,-1,-1,-1,-1,-1,-1,-1,-1,-1,-1,-1,-1,-1,-1],"split_conditions":[3.7162676E-1,8.935001E-3,2.7000002E-4,5E0,8.727143E-1,1.6938E-1,1.0025E2,-1.9773241E-2,-2.886735E-1,-4.6590975E-1,2.275E2,1.595584E-2,-2.7536826E-2,1.095E2,7.9625E2,8.4577125E-1,9.227005E-1,7.8655E3,-8.803975E-1,1.15E1,-3.390283E-2,1.5E0,1.95255E4,8.33675E4,8.62E2,-2.1449639E-2,1.42664015E-2,2.6794776E-2,-0E0,1.699026E-2,-2.299866E-2,-2.175022E-2,4.4925134E-3,-9.105469E-3,2.4781857E-2,-5.2689356E-3,1.4866821E-2,2.4009315E-2,-1.3803232E-2,-3.0941311E-2,1.4574336E-2,5.3229216E-3,1.8109895E-2],"split_indices":[20,19,1,21,17,19,4,0,15,5,4,0,0,3,3,17,17,10,17,24,0,22,3,11,10,0,0,0,0,0,0,0,0,0,0,0,0,0,0,0,0,0,0],"split_type":[0,0,0,0,0,0,0,0,0,0,0,0,0,0,0,0,0,0,0,0,0,0,0,0,0,0,0,0,0,0,0,0,0,0,0,0,0,0,0,0,0,0,0],"sum_hessian":[1.3249246E3,4.3315927E2,8.9176526E2,7.266366E1,3.6049564E2,7.4932384E0,8.8427203E2,2.4971435E0,7.016651E1,2.7346597E2,8.702964E1,1.7499902E0,5.743248E0,4.7339557E2,4.1087646E2,4.4793224E0,6.568719E1,8.383305E1,1.8963293E2,6.9085106E1,1.794453E1,5.4723854E1,4.1867172E2,8.724485E0,4.0215198E2,2.7455077E0,1.7338148E0,6.244775E1,3.2394385E0,8.083972E1,2.9933388E0,1.8233482E1,1.7139944E2,5.511702E1,1.3968089E1,1.1687345E1,4.303651E1,4.1743378E2,1.2379497E0,6.9853044E0,1.739181E0,8.136877E1,3.207832E2],"tree_param":{"num_deleted":"0","num_feature":"25","num_nodes":"43","size_leaf_vector":"0"}},{"base_weights":[7.004506E-1,2.4340566E-1,9.0169454E-1,9.518334E-1,7.574053E-2,1.0921121E0,6.758227E-1,1.1149235E0,-4.3942418E-2,-5.859795E-1,3.186066E-1,-4.227718E-1,1.1113644E0,1.1408536E-1,7.999046E-1,-6.123588E-1,1.1723359E0,9.107932E-1,-1.3126488E0,-1.1308572E0,2.292652E-1,3.9796302E-1,-1.5838403E0,-1.1548214E0,7.899481E-1,1.2920427E0,9.421623E-1,3.1088078E-1,-1.5580007E0,-1.0275806E0,8.199189E-1,-0E0,1.2293358E0,1.4865291E-1,1.1432537E0,7.7415085E-1,-1.3270919E0,-1.386877E0,6.016282E-1,9.5245034E-1,2.2506577E-1,3.3067828E-1,1.3191425E0,9.6580637E-1,-9.8730147E-1,-2.3302707E-1,6.9792145E-1,6.0137287E-3,8.6472636E-1],"categories":[],"categories_nodes":[],"categories_segments":[],"categories_sizes":[],"default_left":[1,1,1,1,1,1,1,1,1,1,1,1,1,1,1,0,1,1,0,1,1,1,0,0,0,1,1,1,0,0,1,0,0,0,0,0,0,0,0,0,0,0,0,0,0,0,0,0,0],"id":10,"left_children":[1,3,5,7,9,11,13,15,17,19,21,23,25,27,29,-1,31,33,-1,35,37,39,-1,-1,-1,41,43,45,-1,-1,47,-1,-1,-1,-1,-1,-1,-1,-1,-1,-1,-1,-1,-1,-1,-1,-1,-1,-1],"loss_changes":[1.24144775E2,4.916774E1,3.82088E1,1.3550285E1,5.519384E1,1.6080627E1,2.9882935E1,8.543495E0,1.7958399E1,4.181821E1,3.8710754E1,8.65609E0,1.1790466E1,2.7423197E1,1.4661255E1,0E0,4.3832626E0,4.6596575E-1,0E0,2.3199821E1,2.4225346E1,2.235057E1,0E0,0E0,0E0,4.447998E0,1.4121277E1,1.6463993E1,0E0,0E0,1.25052185E1,0E0,0E0,0E0,0E0,0E0,0E0,0E0,0E0,0E0,0E0,0E0,0E0,0E0,0E0,0E0,0E0,0E0,0E0],"parents":[2147483647,0,0,1,1,2,2,3,3,4,4,5,5,6,6,7,7,8,8,9,9,10,10,11,11,12,12,13,13,14,14,16,16,17,17,19,19,20,20,21,21,25,25,26,26,27,27,30,30],"right_children":[2,4,6,8,10,12,14,16,18,20,22,24,26,28,30,-1,32,34,-1,36,38,40,-1,-1,-1,42,44,46,-1,-1,48,-1,-1,-1,-1,-1,-1,-1,-1,-1,-1,-1,-1,-1,-1,-1,-1,-1,-1],"split_conditions":[2.1127E-1,1.45333335E-2,9.85E1,5.6331897E0,5.5E0,2.3E-4,2.9145998E-1,2.1E-4,1.125E2,6.9759995E-2,2.02815E-1,2.50075E4,6.5E0,9.12354E-1,2.95675E3,-1.2247176E-2,-7.98271E-1,8.34028E-1,-2.6252976E-2,4.5E0,4.3E1,1.29E-3,-3.1676803E-2,-2.3096427E-2,1.5798962E-2,-9.132345E-1,1.55056E5,3.2543334E-1,-3.1160014E-2,-2.0551613E-2,1.9425E2,-0E0,2.4586715E-2,2.9730583E-3,2.2865074E-2,1.5483017E-2,-2.6541838E-2,-2.7737537E-2,1.2032564E-2,1.9049006E-2,4.5013153E-3,6.6135656E-3,2.6382849E-2,1.9316128E-2,-1.974603E-2,-4.660541E-3,1.3958429E-2,1.2027457E-4,1.7294526E-2],"split_indices":[19,19,4,18,0,1,1,1,9,6,19,10,0,5,3,0,16,15,0,10,10,1,0,0,0,17,9,19,0,0,4,0,0,0,0,0,0,0,0,0,0,0,0,0,0,0,0,0,0],"split_type":[0,0,0,0,0,0,0,0,0,0,0,0,0,0,0,0,0,0,0,0,0,0,0,0,0,0,0,0,0,0,0,0,0,0,0,0,0,0,0,0,0,0,0,0,0,0,0,0,0],"sum_hessian":[1.3587275E3,4.174838E2,9.412437E2,7.753645E1,3.3994736E2,5.0534076E2,4.3590292E2,6.685039E1,1.0686067E1,8.995876E1,2.499886E2,5.489718E0,4.9985104E2,8.028938E1,3.5561356E2,1.2484769E0,6.5601906E1,6.194588E0,4.491479E0,5.3823963E1,3.61348E1,2.4174901E2,8.239586E0,3.7399225E0,1.7497952E0,2.3388037E2,2.659707E2,7.355906E1,6.730321E0,2.4910583E0,3.531225E2,3.2231793E0,6.2378727E1,2.716893E0,3.4776955E0,4.238586E0,4.9585377E1,5.4946976E0,3.0640102E1,5.4632225E1,1.8711679E2,7.641798E0,2.2623857E2,2.6399368E2,1.9770175E0,3.0375874E1,4.3183186E1,1.9126509E1,3.3399597E2],"tree_param":{"num_deleted":"0","num_feature":"25","num_nodes":"49","size_leaf_vector":"0"}},{"base_weights":[6.954419E-1,2.623493E-1,8.905391E-1,1.1082646E0,7.18185E-2,1.0621837E0,6.9768494E-1,1.1689434E0,-6.861671E-1,3.66383E-1,-3.4840566E-1,1.0804046E0,-1.1293815E0,-7.744461E-2,8.40783E-1,1.2241038E0,-6.5124786E-1,4.7750333E-1,-9.0915793E-1,-6.2060073E-2,-1.0912201E0,8.351122E-1,1.2489535E0,1.9849442E-1,-1.0159466E0,9.116312E-1,2.0699163E-1,-0E0,1.277819E0,5.318954E-1,-1.2858701E0,-1.6224662E0,5.54758E-1,-4.0658176E-1,7.990832E-1,-1.547679E0,9.341661E-1,9.320694E-1,-2.9759869E-2,5.5417496E-1,1.3083185E0,-3.8817745E-1,7.377276E-1,-1.7363011E0,6.750903E-1,1.0304929E0,4.809558E-1,-1.0972912E0,7.311959E-1],"categories":[],"categories_nodes":[],"categories_segments":[],"categories_sizes":[],"default_left":[1,1,1,1,1,1,1,1,0,1,1,1,0,1,1,1,0,1,1,1,1,1,1,1,1,1,1,0,0,0,0,0,0,0,0,0,0,0,0,0,0,0,0,0,0,0,0,0,0],"id":11,"left_children":[1,3,5,7,9,11,13,15,-1,17,19,21,-1,23,25,27,-1,29,31,33,35,37,39,41,43,45,47,-1,-1,-1,-1,-1,-1,-1,-1,-1,-1,-1,-1,-1,-1,-1,-1,-1,-1,-1,-1,-1,-1],"loss_changes":[1.1219653E2,6.692034E1,2.8169617E1,1.0181915E1,4.300602E1,2.1695374E1,4.948683E1,9.417709E0,0E0,2.9662539E1,2.9623823E1,1.671997E1,0E0,1.8964865E1,1.5831818E1,4.641304E0,0E0,1.9209099E1,1.9803518E1,3.1767275E1,3.9323933E1,1.7509827E1,9.138733E0,1.828323E1,2.3175997E1,1.5381195E1,2.934755E1,0E0,0E0,0E0,0E0,0E0,0E0,0E0,0E0,0E0,0E0,0E0,0E0,0E0,0E0,0E0,0E0,0E0,0E0,0E0,0E0,0E0,0E0],"parents":[2147483647,0,0,1,1,2,2,3,3,4,4,5,5,6,6,7,7,9,9,10,10,11,11,13,13,14,14,15,15,17,17,18,18,19,19,20,20,21,21,22,22,23,23,24,24,25,25,26,26],"right_children":[2,4,6,8,10,12,14,16,-1,18,20,22,-1,24,26,28,-1,30,32,34,36,38,40,42,44,46,48,-1,-1,-1,-1,-1,-1,-1,-1,-1,-1,-1,-1,-1,-1,-1,-1,-1,-1,-1,-1,-1,-1],"split_conditions":[2.1083999E-1,1.2716666E-3,1.0025E2,9.39025E-1,1E0,9.518275E-1,2.9145998E-1,2.05E1,-1.3723342E-2,9.30959E-1,8.6109054E-1,1.307E-2,-2.258763E-2,4.5E0,1.75E1,5E0,-1.3024957E-2,1.144E3,9.38362E-1,3.2895E-1,5.565E2,1.75E1,-8.8169754E-1,3.3053333E-1,4.43325E4,3.8225E2,1.028E3,-0E0,2.555638E-2,1.0637907E-2,-2.57174E-2,-3.2449324E-2,1.109516E-2,-8.131635E-3,1.5981663E-2,-3.0953579E-2,1.8683322E-2,1.8641388E-2,-5.951974E-4,1.1083499E-2,2.616637E-2,-7.7635488E-3,1.4754551E-2,-3.472602E-2,1.3501806E-2,2.0609858E-2,9.619116E-3,-2.1945825E-2,1.4623919E-2],"split_indices":[19,19,4,5,4,15,1,0,0,15,17,1,0,22,0,21,0,14,17,1,14,0,5,19,10,14,11,0,0,0,0,0,0,0,0,0,0,0,0,0,0,0,0,0,0,0,0,0,0],"split_type":[0,0,0,0,0,0,0,0,0,0,0,0,0,0,0,0,0,0,0,0,0,0,0,0,0,0,0,0,0,0,0,0,0,0,0,0,0,0,0,0,0,0,0,0,0,0,0,0,0],"sum_hessian":[1.3381976E3,4.17857E2,9.2034064E2,7.456168E1,3.4329532E2,4.8080505E2,4.395356E2,7.306671E1,1.4949719E0,2.0267343E2,1.4062189E2,4.7807248E2,2.7325654E0,6.809642E1,3.714392E2,7.181989E1,1.2468168E0,1.8794377E2,1.4729672E1,1.035463E2,3.7075584E1,2.0076747E2,2.77305E2,5.3430866E1,1.4665548E1,3.3259454E2,3.8844658E1,3.2333314E0,6.858656E1,1.8395001E2,3.9937482E0,9.987902E0,4.7417707E0,7.512645E1,2.8419855E1,3.0843098E1,6.2324867E0,1.8090921E2,1.9858263E1,2.4119162E1,2.5318584E2,2.5414051E1,2.8016817E1,1.045432E1,4.2112293E0,2.5756342E2,7.503111E1,1.0235981E1,2.8608675E1],"tree_param":{"num_deleted":"0","num_feature":"25","num_nodes":"49","size_leaf_vector":"0"}},{"base_weights":[6.4147204E-1,2.3314428E-1,8.3276E-1,1.0449191E0,5.4512378E-2,9.0003824E-1,3.5953403E-1,1.1151674E0,-7.623006E-1,-1.0963207E0,1.9025895E-1,-4.2841652E-1,9.1124004E-1,-1.80978E-1,9.334374E-1,1.1702547E0,-6.4610726E-1,-0E0,-1.5264472E0,4.9962536E-1,-2.1927947E-1,-1.1517651E0,7.74123E-1,1.0417105E0,7.680488E-1,7.234562E-2,-1.6145577E0,-2.3247081E-1,1.1441011E0,8.547011E-2,1.2574321E0,5.3268254E-1,-1.0327886E0,1.8375552E-1,-1.7606179E0,-1.053034E0,6.134673E-1,-1.2218912E0,1.8007558E-2,1.0577005E0,-9.3484545E-1,5.9951533E-2,8.3622736E-1,-1.0914637E0,4.0405688E-1,-1.2895318E0,8.202355E-1,1.2305518E0,-6.7107874E-1],"categories":[],"categories_nodes":[],"categories_segments":[],"categories_sizes":[],"default_left":[1,1,1,1,1,1,1,1,0,1,1,1,1,1,1,1,0,1,1,1,1,0,0,1,1,1,0,1,1,0,0,0,0,0,0,0,0,0,0,0,0,0,0,0,0,0,0,0,0],"id":12,"left_children":[1,3,5,7,9,11,13,15,-1,17,19,21,23,25,27,29,-1,31,33,35,37,-1,-1,39,41,43,-1,45,47,-1,-1,-1,-1,-1,-1,-1,-1,-1,-1,-1,-1,-1,-1,-1,-1,-1,-1,-1,-1],"loss_changes":[1.0139844E2,6.045996E1,2.707312E1,1.145031E1,5.434576E1,1.2590332E1,3.6416298E1,8.921783E0,0E0,1.7506413E1,4.007512E1,8.484874E0,1.1915283E1,2.2974997E1,1.4888546E1,5.962265E0,0E0,7.7499113E0,1.2012672E1,3.2867386E1,3.2903725E1,0E0,0E0,1.4568481E1,1.7673294E1,2.1010653E1,0E0,1.3433537E1,9.563431E0,0E0,0E0,0E0,0E0,0E0,0E0,0E0,0E0,0E0,0E0,0E0,0E0,0E0,0E0,0E0,0E0,0E0,0E0,0E0,0E0],"parents":[2147483647,0,0,1,1,2,2,3,3,4,4,5,5,6,6,7,7,9,9,10,10,11,11,12,12,13,13,14,14,15,15,17,17,18,18,19,19,20,20,23,23,24,24,25,25,27,27,28,28],"right_children":[2,4,6,8,10,12,14,16,-1,18,20,22,24,26,28,30,-1,32,34,36,38,-1,-1,40,42,44,-1,46,48,-1,-1,-1,-1,-1,-1,-1,-1,-1,-1,-1,-1,-1,-1,-1,-1,-1,-1,-1,-1],"split_conditions":[2.1083833E-1,8.935001E-3,1.75E1,9.38536E-1,3.95E1,2.1999999E-4,3.975E2,2.05E1,-1.5246012E-2,1.0999999E-4,1.6350001E-2,2.50075E4,6.5E0,1.13010004E-1,2.8070167E-1,-2.886735E-1,-1.29221445E-2,2.5E0,2.0365E-2,4.038904E-2,9.702492E-2,-2.30353E-2,1.548246E-2,3.54563E5,1.73E2,4.84E-3,-3.2291155E-2,9.149385E-1,1.4786E4,1.7094022E-3,2.5148641E-2,1.065365E-2,-2.0655772E-2,3.6751102E-3,-3.5212357E-2,-2.106068E-2,1.2269345E-2,-2.4437822E-2,3.6015114E-4,2.115401E-2,-1.8696908E-2,1.1990307E-3,1.6724547E-2,-2.1829274E-2,8.081137E-3,-2.5790635E-2,1.6404709E-2,2.4611035E-2,-1.3421575E-2],"split_indices":[19,19,0,5,10,1,14,0,0,7,1,10,0,8,19,15,0,22,19,20,20,0,0,10,10,8,0,15,10,0,0,0,0,0,0,0,0,0,0,0,0,0,0,0,0,0,0,0,0],"split_type":[0,0,0,0,0,0,0,0,0,0,0,0,0,0,0,0,0,0,0,0,0,0,0,0,0,0,0,0,0,0,0,0,0,0,0,0,0,0,0,0,0,0,0,0,0,0,0,0,0],"sum_hessian":[1.3079739E3,4.195162E2,8.884577E2,7.3410645E1,3.4610553E2,7.753642E2,1.1309353E2,7.166741E1,1.7432344E0,3.4635628E1,3.114699E2,5.4872646E0,7.698769E2,5.849758E1,5.4595947E1,7.041991E1,1.2475075E0,1.0224299E1,2.4411327E1,1.7787991E2,1.3359001E2,3.7386396E0,1.7486252E0,3.9443808E2,3.7543884E2,5.1030437E1,7.4671445E0,7.96019E0,4.6635757E1,5.959509E0,6.4460396E1,7.48072E0,2.7435794E0,2.7346842E0,2.1676643E1,1.072415E1,1.6715576E2,2.4380997E1,1.09209015E2,3.9244598E2,1.9921007E0,3.394817E1,3.4149066E2,9.968346E0,4.106209E1,3.9843683E0,3.9758213E0,4.5393433E1,1.2423232E0],"tree_param":{"num_deleted":"0","num_feature":"25","num_nodes":"49","size_leaf_vector":"0"}},{"base_weights":[6.5620434E-1,2.450333E-1,8.518293E-1,4.0454012E-1,-2.2176518E-1,-7.4101067E-1,8.6737955E-1,-1.4922189E-2,6.30072E-1,1.1116046E-1,-1.4514729E0,-1.329892E0,6.0724986E-1,1.022814E0,6.755823E-1,1.13637E0,-2.9760566E-1,1.2072266E0,4.599667E-1,-7.337542E-1,5.7270515E-1,-1.69561E0,6.672091E-1,6.6743016E-1,1.146213E0,4.545559E-2,8.321581E-1,-9.374779E-1,1.4810249E0,-3.719172E-3,-1.4535275E0,1.4243548E0,4.9069622E-1,-2.319895E-2,8.445268E-1,-1.230176E0,9.2992276E-1,-1.2397524E0,7.7660084E-1,4.0845552E-1,1.1890754E0,1.1623164E0,-1.7666037E-1,-1.5801021E0,2.7706972E-1,-8.3499676E-1,8.738829E-1],"categories":[],"categories_nodes":[],"categories_segments":[],"categories_sizes":[],"default_left":[1,1,1,1,1,1,1,1,1,1,1,0,0,1,1,1,1,1,1,1,1,0,0,1,1,1,1,0,0,0,0,0,0,0,0,0,0,0,0,0,0,0,0,0,0,0,0],"id":13,"left_children":[1,3,5,7,9,11,13,15,17,19,21,-1,-1,23,25,27,29,31,33,35,37,-1,-1,39,41,43,45,-1,-1,-1,-1,-1,-1,-1,-1,-1,-1,-1,-1,-1,-1,-1,-1,-1,-1,-1,-1],"loss_changes":[1.0620062E2,3.2522995E1,2.366986E1,3.1010704E1,4.6358925E1,9.503603E0,2.4411377E1,3.7551373E1,1.8845665E1,3.5365433E1,1.5227531E1,0E0,0E0,1.8977417E1,3.967888E1,1.9242548E1,3.1171688E1,4.848587E0,3.1563889E1,2.8737513E1,2.3459126E1,0E0,0E0,1.6019764E1,8.543152E0,3.1786795E1,2.412465E1,0E0,0E0,0E0,0E0,0E0,0E0,0E0,0E0,0E0,0E0,0E0,0E0,0E0,0E0,0E0,0E0,0E0,0E0,0E0,0E0],"parents":[2147483647,0,0,1,1,2,2,3,3,4,4,5,5,6,6,7,7,8,8,9,9,10,10,13,13,14,14,15,15,16,16,17,17,18,18,19,19,20,20,23,23,24,24,25,25,26,26],"right_children":[2,4,6,8,10,12,14,16,18,20,22,-1,-1,24,26,28,30,32,34,36,38,-1,-1,40,42,44,46,-1,-1,-1,-1,-1,-1,-1,-1,-1,-1,-1,-1,-1,-1,-1,-1,-1,-1,-1,-1],"split_conditions":[3.6897036E-1,8.725565E-1,2.3E-4,4.76E2,2.26E2,9.39858E-1,1.1675E2,-9.9624616E-1,-8.577952E-1,5.85E2,1.2308E5,-2.659784E-2,1.2144997E-2,2.6525E2,7.57E2,5.38E-3,1.2540999E-1,2.73E-2,2.7973002E-1,1.15E1,4.05E1,-3.39122E-2,1.3344182E-2,9.174125E-1,9.490965E-1,2.4972E-1,1.03E-3,-1.8749557E-2,2.9620497E-2,-7.438344E-5,-2.9070549E-2,2.8487096E-2,9.813924E-3,-4.6397897E-4,1.6890537E-2,-2.460352E-2,1.8598454E-2,-2.4795048E-2,1.5532017E-2,8.16911E-3,2.3781506E-2,2.3246327E-2,-3.5332073E-3,-3.160204E-2,5.541394E-3,-1.6699934E-2,1.7477658E-2],"split_indices":[20,17,1,3,4,17,4,18,18,11,3,0,0,3,10,7,6,7,1,24,10,0,0,16,15,1,6,0,0,0,0,0,0,0,0,0,0,0,0,0,0,0,0,0,0,0,0],"split_type":[0,0,0,0,0,0,0,0,0,0,0,0,0,0,0,0,0,0,0,0,0,0,0,0,0,0,0,0,0,0,0,0,0,0,0,0,0,0,0,0,0,0,0,0,0,0,0],"sum_hessian":[1.3303322E3,4.3116208E2,8.991701E2,3.223513E2,1.088108E2,7.4804244E0,8.916897E2,1.1259281E2,2.0975847E2,8.6739845E1,2.2070955E1,5.48349E0,1.9969344E0,4.863082E2,4.053815E2,2.0656385E1,9.1936424E1,4.430424E1,1.6545422E2,2.9843943E1,5.6895905E1,2.0360203E1,1.710752E0,1.2968643E2,3.5662177E2,8.183144E1,3.2355005E2,2.2467115E0,1.8409674E1,7.524484E1,1.669158E1,3.1949245E1,1.2354997E1,7.358295E1,9.187128E1,2.3618217E1,6.2257247E0,4.477944E0,5.241796E1,8.968579E1,4.0000645E1,3.5294604E2,3.6757193E0,8.484054E0,7.33474E1,6.6789455E0,3.168711E2],"tree_param":{"num_deleted":"0","num_feature":"25","num_nodes":"47","size_leaf_vector":"0"}},{"base_weights":[6.6142327E-1,2.1949147E-1,8.5911655E-1,8.844161E-1,9.412851E-2,1.04427E0,7.027056E-1,1.0884464E0,-6.8418616E-1,-3.1202555E-1,3.3480325E-1,1.061481E0,-1.0162323E0,7.423433E-1,-1.7635392E-1,-8.85133E-1,1.1976913E0,7.121231E-1,-1.3295561E0,-8.4449485E-2,-1.6811669E0,-0E0,6.3142747E-1,-7.4088514E-1,1.0738696E0,1.473788E-2,7.948264E-1,-1.6588795E0,8.797784E-1,1.3624958E0,-2.3897344E-2,6.7400104E-1,-3.768549E-1,1.0265712E0,-2.4271971E-1,-1.0654178E0,6.982251E-1,1.0838611E0,-7.103527E-1,3.533179E-1,-1.4709108E0,1.1529334E0,7.118152E-1,1.2339555E0,-8.104273E-1],"categories":[],"categories_nodes":[],"categories_segments":[],"categories_sizes":[],"default_left":[1,1,1,1,1,1,1,1,1,1,1,1,0,1,1,0,1,0,0,1,0,1,1,0,1,1,1,0,1,0,0,0,0,0,0,0,0,0,0,0,0,0,0,0,0],"id":14,"left_children":[1,3,5,7,9,11,13,15,17,19,21,23,-1,25,27,-1,29,-1,-1,31,-1,33,35,-1,37,39,41,-1,43,-1,-1,-1,-1,-1,-1,-1,-1,-1,-1,-1,-1,-1,-1,-1,-1],"loss_changes":[1.1606598E2,3.4130325E1,2.4408203E1,2.2599133E1,3.482296E1,1.6981964E1,1.825502E1,1.4967453E1,9.830635E0,3.995462E1,2.2099535E1,1.1027557E1,0E0,1.81792E1,3.9322903E1,0E0,1.2182671E1,0E0,0E0,2.5993103E1,0E0,2.7492516E1,1.4725307E1,0E0,9.096466E0,1.8318169E1,1.09166565E1,0E0,1.0917355E1,0E0,0E0,0E0,0E0,0E0,0E0,0E0,0E0,0E0,0E0,0E0,0E0,0E0,0E0,0E0,0E0],"parents":[2147483647,0,0,1,1,2,2,3,3,4,4,5,5,6,6,7,7,8,8,9,9,10,10,11,11,13,13,14,14,16,16,19,19,21,21,22,22,24,24,25,25,26,26,28,28],"right_children":[2,4,6,8,10,12,14,16,18,20,22,24,-1,26,28,-1,30,-1,-1,32,-1,34,36,-1,38,40,42,-1,44,-1,-1,-1,-1,-1,-1,-1,-1,-1,-1,-1,-1,-1,-1,-1,-1],"split_conditions":[2.1083999E-1,8.935001E-3,6.5E0,9.2424154E-1,9.505667E-2,3.54563E5,1.00101E0,5E0,-9.0731597E-1,2.335E2,1.003E3,2.3E-4,-2.0324644E-2,-8.7000203E-1,7.734E-2,-1.770266E-2,1.5695E3,1.4242462E-2,-2.6591122E-2,-7.577535E-1,-3.3623338E-2,3.5E0,8.2E-4,-1.4817703E-2,1.5790601E0,5.117E-2,-3.6584675E-1,-3.3177588E-2,4.9005002E-1,2.7249916E-2,-4.779469E-4,1.3480021E-2,-7.5370977E-3,2.0531423E-2,-4.854394E-3,-2.1308355E-2,1.3964501E-2,2.1677222E-2,-1.4207054E-2,7.0663574E-3,-2.9418215E-2,2.3058666E-2,1.4236303E-2,2.467911E-2,-1.6208546E-2],"split_indices":[19,19,0,5,19,10,6,21,18,13,11,1,0,5,7,0,4,0,0,17,0,0,7,0,1,1,5,0,7,0,0,0,0,0,0,0,0,0,0,0,0,0,0,0,0],"split_type":[0,0,0,0,0,0,0,0,0,0,0,0,0,0,0,0,0,0,0,0,0,0,0,0,0,0,0,0,0,0,0,0,0,0,0,0,0,0,0,0,0,0,0,0,0],"sum_hessian":[1.3369778E3,4.1531503E2,9.216627E2,6.33276E1,3.5198746E2,4.1538992E2,5.062728E2,5.6862392E1,6.4652076E0,1.2997533E2,2.2201212E2,4.131513E2,2.238611E0,4.8527127E2,2.1001513E1,1.9973624E0,5.4865032E1,1.7333499E0,4.7318573E0,1.13584145E2,1.6391184E1,1.0560305E2,1.1640907E2,1.7420568E0,4.1140927E2,3.3461586E1,4.518097E2,8.459147E0,1.2542365E1,4.8500446E1,6.364582E0,3.040324E1,8.318091E1,1.9142565E1,8.646049E1,2.9930134E0,1.1341605E2,4.101776E2,1.2316474E0,2.876658E1,4.695005E0,7.903878E1,3.727709E2,1.1060393E1,1.481972E0],"tree_param":{"num_deleted":"0","num_feature":"25","num_nodes":"45","size_leaf_vector":"0"}},{"base_weights":[6.25199E-1,1.817476E-1,8.1509763E-1,8.330189E-1,2.5545906E-2,9.8327374E-1,6.233917E-1,9.1577774E-1,-8.804347E-1,-8.0474585E-1,1.6649155E-1,-1.1498123E0,1.0035759E0,5.925577E-2,7.633319E-1,9.6784407E-1,-6.5572715E-1,-1.3736651E0,6.4704555E-1,2.331595E-1,-1.1643398E0,1.0200353E0,-1.0849924E0,-1.09279E0,2.3790535E-1,5.7145196E-1,1.1355262E0,7.588775E-2,1.0867412E0,2.0516796E-1,-1.5526065E0,9.590085E-1,-7.1451306E-1,2.8074688E-1,-1.4190065E0,6.940579E-1,-1.6081789E0,1.032034E0,-9.267443E-1,3.6612716E-1,-1.5523317E0,4.0760636E-1,-9.7873557E-1,2.9706743E-1,9.728367E-1,-8.118988E-1,1.1795518E0],"categories":[],"categories_nodes":[],"categories_segments":[],"categories_sizes":[],"default_left":[1,1,1,1,1,1,1,1,0,1,1,0,1,1,1,1,0,1,1,1,1,1,0,1,1,1,1,0,0,0,0,0,0,0,0,0,0,0,0,0,0,0,0,0,0,0,0],"id":15,"left_children":[1,3,5,7,9,11,13,15,-1,17,19,-1,21,23,25,27,-1,29,31,33,35,37,-1,39,41,43,45,-1,-1,-1,-1,-1,-1,-1,-1,-1,-1,-1,-1,-1,-1,-1,-1,-1,-1,-1,-1],"loss_changes":[1.0939337E2,3.9781277E1,2.7463928E1,1.2387623E1,3.7610836E1,2.3127808E1,3.378766E1,7.4494934E0,0E0,4.0573586E1,2.4679983E1,0E0,1.8654175E1,1.8452528E1,2.264E1,6.9296646E0,0E0,1.1006432E1,7.5296497E0,2.114825E1,1.3580683E1,1.3101166E1,0E0,9.74696E0,1.687453E1,2.4554413E1,1.1973663E1,0E0,0E0,0E0,0E0,0E0,0E0,0E0,0E0,0E0,0E0,0E0,0E0,0E0,0E0,0E0,0E0,0E0,0E0,0E0,0E0],"parents":[2147483647,0,0,1,1,2,2,3,3,4,4,5,5,6,6,7,7,9,9,10,10,12,12,13,13,14,14,15,15,17,17,18,18,19,19,20,20,21,21,23,23,24,24,25,25,26,26],"right_children":[2,4,6,8,10,12,14,16,-1,18,20,-1,22,24,26,28,-1,30,32,34,36,38,-1,40,42,44,46,-1,-1,-1,-1,-1,-1,-1,-1,-1,-1,-1,-1,-1,-1,-1,-1,-1,-1,-1,-1],"split_conditions":[2.1083999E-1,1.5486876E-2,1.195E2,9.381115E-1,6.999822E-2,2.7600485E-1,5.445E3,1.95E1,-1.7608693E-2,1.244E3,2.0376167E-1,-2.2996247E-2,9.518275E-1,2.86E2,1.5E0,9E0,-1.3114543E-2,1.5E0,8.59E-3,9.845E2,2.5E0,4.608E3,-2.1699848E-2,3.455055E-1,4.6245E3,8.9366627E-1,-4.4684E-1,1.5177549E-3,2.1734824E-2,4.1033593E-3,-3.105213E-2,1.918017E-2,-1.4290261E-2,5.6149373E-3,-2.838013E-2,1.3881157E-2,-3.2163575E-2,2.064068E-2,-1.8534886E-2,7.3225433E-3,-3.1046633E-2,8.152127E-3,-1.9574711E-2,5.9413486E-3,1.9456733E-2,-1.6237976E-2,2.3591036E-2],"split_indices":[19,20,4,5,20,20,3,0,0,9,19,0,15,10,2,21,0,24,8,12,0,13,0,20,3,15,5,0,0,0,0,0,0,0,0,0,0,0,0,0,0,0,0,0,0,0,0],"split_type":[0,0,0,0,0,0,0,0,0,0,0,0,0,0,0,0,0,0,0,0,0,0,0,0,0,0,0,0,0,0,0,0,0,0,0,0,0,0,0,0,0,0,0,0,0,0,0],"sum_hessian":[1.3064783E3,3.9368707E2,9.1279114E2,7.386124E1,3.1982584E2,4.8044736E2,4.323438E2,7.162469E1,2.2365506E0,4.4531296E1,2.7529456E2,3.2484221E0,4.771989E2,8.720745E1,3.4513635E2,7.037934E1,1.2453475E0,3.2318535E1,1.2212762E1,2.6409027E2,1.1204283E1,4.7472043E2,2.478512E0,9.958172E0,7.724928E1,2.3196428E2,1.1317208E2,9.158078E0,6.122126E1,2.9757342E0,2.93428E1,1.0716021E1,1.4967414E0,2.5860446E2,5.485811E0,1.7254791E0,9.478804E0,4.730017E2,1.7186992E0,2.2221086E0,7.7360635E0,6.932107E1,7.928211E0,1.4058618E2,9.13781E1,1.4796913E0,1.1169239E2],"tree_param":{"num_deleted":"0","num_feature":"25","num_nodes":"47","size_leaf_vector":"0"}},{"base_weights":[6.4358866E-1,2.5803614E-1,8.226442E-1,9.160232E-1,1.3168937E-1,9.9897116E-1,6.242944E-1,-1.912832E-1,1.0027434E0,3.791468E-1,-2.8939098E-1,-1.2435741E0,1.0228748E0,-9.818536E-1,6.8379825E-1,-9.0005E-1,5.340516E-1,1.0610236E0,-0E0,6.4790213E-1,-5.3733855E-2,-1.01241E0,5.9111208E-2,-3.2132667E-1,1.061296E0,-1.6479143E0,1.7755212E-1,4.879018E-3,7.358121E-1,5.1559366E-2,1.097223E0,-8.122716E-1,6.6857934E-1,7.5004894E-1,-5.570957E-1,-1.2258694E0,3.56577E-1,1.0768354E-1,-1.229997E0,3.721055E-1,-1.0265378E0,-9.67599E-1,9.1741246E-1,1.0771997E0,-1.0606115E0,7.706514E-1,-7.8993857E-1,-9.324709E-1,7.278699E-1,8.274199E-1,3.2860482E-1],"categories":[],"categories_nodes":[],"categories_segments":[],"categories_sizes":[],"default_left":[1,1,1,1,1,1,1,1,1,1,1,0,1,1,1,0,0,1,1,1,1,1,1,1,1,0,1,1,1,0,0,0,0,0,0,0,0,0,0,0,0,0,0,0,0,0,0,0,0,0,0],"id":16,"left_children":[1,3,5,7,9,11,13,15,17,19,21,-1,23,25,27,-1,-1,29,31,33,35,37,39,41,43,-1,45,47,49,-1,-1,-1,-1,-1,-1,-1,-1,-1,-1,-1,-1,-1,-1,-1,-1,-1,-1,-1,-1,-1,-1],"loss_changes":[9.1709045E1,3.494302E1,2.9938782E1,7.3399925E0,3.8120476E1,2.814621E1,4.298021E1,4.3396297E0,4.1058807E0,2.717611E1,3.4578167E1,0E0,2.5631592E1,1.3784473E1,1.45629425E1,0E0,0E0,1.5346375E0,3.9545987E0,1.8538391E1,4.430634E1,1.1656822E1,3.1842209E1,1.3327677E1,1.7935547E1,0E0,5.466029E0,2.3486588E1,1.3511551E1,0E0,0E0,0E0,0E0,0E0,0E0,0E0,0E0,0E0,0E0,0E0,0E0,0E0,0E0,0E0,0E0,0E0,0E0,0E0,0E0,0E0,0E0],"parents":[2147483647,0,0,1,1,2,2,3,3,4,4,5,5,6,6,7,7,8,8,9,9,10,10,12,12,13,13,14,14,17,17,18,18,19,19,20,20,21,21,22,22,23,23,24,24,26,26,27,27,28,28],"right_children":[2,4,6,8,10,12,14,16,18,20,22,-1,24,26,28,-1,-1,30,32,34,36,38,40,42,44,-1,46,48,50,-1,-1,-1,-1,-1,-1,-1,-1,-1,-1,-1,-1,-1,-1,-1,-1,-1,-1,-1,-1,-1,-1],"split_conditions":[2.1127E-1,8.935001E-3,1.0025E2,5E0,2.725E1,2.85545E-1,1.20925E3,9.256795E-1,3.30525E3,4.190495E-1,1.1075E3,-2.4871482E-2,2.95E1,3.5077667E-1,9.6E1,-1.8001E-2,1.0681031E-2,-7.9719996E-1,2.15553E5,1.9266666E-1,-9.834664E-1,2.3E-4,8.574035E-1,8.465E2,4.45275E3,-3.2958284E-2,5.67138E-1,8.64479E-1,9.08175E3,1.0311872E-3,2.194446E-2,-1.6245432E-2,1.3371587E-2,1.50009785E-2,-1.1141914E-2,-2.4517387E-2,7.13154E-3,2.1536706E-3,-2.459994E-2,7.44211E-3,-2.0530755E-2,-1.935198E-2,1.8348249E-2,2.1543993E-2,-2.121223E-2,1.5413027E-2,-1.5798772E-2,-1.8649418E-2,1.4557398E-2,1.6548397E-2,6.572096E-3],"split_indices":[19,19,4,21,4,20,3,15,13,15,3,0,3,19,9,0,0,16,3,19,18,8,17,14,13,0,15,15,9,0,0,0,0,0,0,0,0,0,0,0,0,0,0,0,0,0,0,0,0,0,0],"split_type":[0,0,0,0,0,0,0,0,0,0,0,0,0,0,0,0,0,0,0,0,0,0,0,0,0,0,0,0,0,0,0,0,0,0,0,0,0,0,0,0,0,0,0,0,0,0,0,0,0,0,0],"sum_hessian":[1.3404133E3,4.275223E2,9.1289105E2,6.62176E1,3.6130472E2,4.7766635E2,4.352247E2,4.215379E0,6.2002216E1,2.2844211E2,1.3286261E2,3.7409286E0,4.739254E2,1.414032E1,4.2108438E2,2.2370317E0,1.9783474E0,5.8811428E1,3.1907904E0,1.4103914E2,8.740297E1,4.243975E1,9.042286E1,1.2398881E1,4.6152652E2,8.719608E0,5.420712E0,3.0804485E1,3.902799E2,2.6819875E0,5.612944E1,1.4791971E0,1.7115933E0,1.3109624E2,9.942894E0,2.1947834E1,6.545514E1,6.6937847E0,3.5745964E1,7.1565475E1,1.8857382E1,8.700881E0,3.6980004E0,4.5930438E2,2.2221575E0,3.933235E0,1.487477E0,1.2860253E1,1.7944233E1,3.1591748E2,7.4362404E1],"tree_param":{"num_deleted":"0","num_feature":"25","num_nodes":"51","size_leaf_vector":"0"}},{"base_weights":[6.317742E-1,2.3834494E-1,8.2359487E-1,4.056379E-1,-2.5727642E-1,9.7380114E-1,6.176819E-1,2.3270102E-1,9.403058E-1,2.0173918E-1,-1.5041919E0,5.952202E-1,1.101087E0,-1.253906E-1,7.0938385E-1,5.1348E-1,-1.7431678E-1,-1.0429087E0,1.0377445E0,-1.14883065E-1,1.3061903E0,-1.693993E0,6.546522E-1,7.746982E-1,3.0653417E-2,1.1117865E0,-6.7637503E-1,-1.533012E0,2.6470643E-1,8.1460446E-1,2.2157425E-1,6.9507605E-1,-1.953552E-1,-1.5984408E0,1.7485792E-2,1.1093049E0,-8.256011E-1,-1.1045942E0,3.3922207E-1,1.2812394E-1,1.4569842E0,9.63682E-1,-1.5515193E-1,9.7948575E-1,-4.099246E-1,-6.406524E-1,1.1222833E0,6.435615E-1,-9.008159E-1,9.2028454E-2,8.608932E-1,-1.3217479E0,3.8952172E-1],"categories":[],"categories_nodes":[],"categories_segments":[],"categories_sizes":[],"default_left":[1,1,1,1,1,1,1,1,1,1,1,1,1,1,1,1,1,0,1,1,1,0,0,1,1,1,0,0,1,1,1,0,0,0,0,0,0,0,0,0,0,0,0,0,0,0,0,0,0,0,0,0,0],"id":17,"left_children":[1,3,5,7,9,11,13,15,17,19,21,23,25,27,29,31,33,-1,35,37,39,-1,-1,41,43,45,-1,-1,47,49,51,-1,-1,-1,-1,-1,-1,-1,-1,-1,-1,-1,-1,-1,-1,-1,-1,-1,-1,-1,-1,-1,-1],"loss_changes":[9.97735E1,3.6847824E1,2.5692566E1,2.9603447E1,6.522428E1,2.2552124E1,2.6670242E1,2.9336123E1,1.7542007E1,2.9975948E1,1.5276367E1,1.3165512E1,8.956696E0,2.5243546E1,1.6734604E1,2.0001629E1,2.9339586E1,0E0,1.2254868E1,3.0847334E1,2.216774E0,0E0,0E0,1.8487785E1,1.5789182E1,8.654053E0,0E0,0E0,1.66454E1,8.753174E0,1.7275879E1,0E0,0E0,0E0,0E0,0E0,0E0,0E0,0E0,0E0,0E0,0E0,0E0,0E0,0E0,0E0,0E0,0E0,0E0,0E0,0E0,0E0,0E0],"parents":[2147483647,0,0,1,1,2,2,3,3,4,4,5,5,6,6,7,7,8,8,9,9,10,10,11,11,12,12,13,13,14,14,15,15,16,16,18,18,19,19,20,20,23,23,24,24,25,25,28,28,29,29,30,30],"right_children":[2,4,6,8,10,12,14,16,18,20,22,24,26,28,30,32,34,-1,36,38,40,-1,-1,42,44,46,-1,-1,48,50,52,-1,-1,-1,-1,-1,-1,-1,-1,-1,-1,-1,-1,-1,-1,-1,-1,-1,-1,-1,-1,-1,-1],"split_conditions":[3.6897036E-1,8.6109054E-1,1.205E2,3.5006E-1,1.2166667E2,2.625E2,3.465E3,4.25E0,3.56225E3,1.15E1,9.8152E4,9.5E0,9.5135105E-1,7.78E2,1.65E1,8.33025E-3,-8.803648E-1,-2.0858172E-2,9.201305E-1,9.075E1,-9.06342E-1,-3.3879858E-2,1.3093043E-2,3.61E-3,6.3899998E-3,1.80575E-1,-1.35275E-2,-3.066024E-2,4.5E0,1.32E-3,2.6309502E-1,1.39015205E-2,-3.907104E-3,-3.1968813E-2,3.4971582E-4,2.2186097E-2,-1.6512021E-2,-2.2091884E-2,6.7844414E-3,2.5624787E-3,2.9139683E-2,1.9273639E-2,-3.1030385E-3,1.9589715E-2,-8.198491E-3,-1.2813048E-2,2.2445666E-2,1.2871229E-2,-1.8016318E-2,1.8405691E-3,1.7217863E-2,-2.6434958E-2,7.790434E-3],"split_indices":[20,17,4,1,4,3,3,4,3,24,3,24,15,10,0,17,17,0,16,12,5,0,0,1,6,19,0,0,22,6,19,0,0,0,0,0,0,0,0,0,0,0,0,0,0,0,0,0,0,0,0,0,0],"split_type":[0,0,0,0,0,0,0,0,0,0,0,0,0,0,0,0,0,0,0,0,0,0,0,0,0,0,0,0,0,0,0,0,0,0,0,0,0,0,0,0,0,0,0,0,0,0,0,0,0,0,0,0,0],"sum_hessian":[1.332304E3,4.3899838E2,8.9330554E2,3.2923856E2,1.0975984E2,5.1080475E2,3.8250076E2,2.5164899E2,7.758957E1,8.1158966E1,2.860088E1,1.3237326E2,3.784315E2,4.1338932E1,3.4116183E2,1.4933582E2,1.0231317E2,2.4844542E0,7.510511E1,6.41172E1,1.7041765E1,2.689829E1,1.7025882E0,9.920544E1,3.3167828E1,3.7719128E2,1.2401968E0,7.97698E0,3.336195E1,2.7868466E2,6.2477173E1,1.1947245E2,2.9863365E1,1.0712524E1,9.160065E1,7.336525E1,1.7398628E0,1.9611202E1,4.4506E1,2.7298808E0,1.4311884E1,8.283492E1,1.6370512E1,1.0101552E1,2.3066277E1,1.2473634E0,3.7594394E2,2.6177553E1,7.184398E0,1.778802E1,2.6089664E2,4.4909825E0,5.798619E1],"tree_param":{"num_deleted":"0","num_feature":"25","num_nodes":"53","size_leaf_vector":"0"}},{"base_weights":[5.822924E-1,2.089081E-1,7.589137E-1,8.6164486E-1,7.292992E-2,9.496007E-1,5.552961E-1,9.4402444E-1,-9.0443194E-1,3.336032E-1,-2.8046048E-1,-4.754706E-1,9.828451E-1,-7.3705506E-1,6.2623936E-1,-8.57331E-1,1.0215833E0,4.4897667E-1,-1.1978639E0,8.456191E-3,-1.0595802E0,-1.3933601E0,5.8548456E-1,-1.0992975E0,1.0029625E0,-0E0,-1.6350607E0,4.8170045E-1,9.204654E-1,-7.717466E-1,1.098157E0,-1.0562969E-1,6.4497656E-1,4.395286E-1,-1.6025821E0,1.0046172E0,-2.2084337E-1,-1.452162E0,2.1711786E-1,8.00343E-1,1.14576E0,-1.2187777E0,6.3016015E-1,2.3525135E-1,7.8910327E-1,-4.8108228E-2,1.0276098E0],"categories":[],"categories_nodes":[],"categories_segments":[],"categories_sizes":[],"default_left":[1,1,1,1,1,1,1,1,0,1,1,1,1,1,1,0,1,1,1,1,1,0,0,0,1,1,0,1,1,0,0,0,0,0,0,0,0,0,0,0,0,0,0,0,0,0,0],"id":18,"left_children":[1,3,5,7,9,11,13,15,-1,17,19,21,23,25,27,-1,29,31,33,35,37,-1,-1,-1,39,41,-1,43,45,-1,-1,-1,-1,-1,-1,-1,-1,-1,-1,-1,-1,-1,-1,-1,-1,-1,-1],"loss_changes":[8.601471E1,3.7254364E1,3.282776E1,1.2303902E1,3.298189E1,2.2817871E1,4.0976593E1,1.1712154E1,0E0,3.7177094E1,3.4595562E1,1.3149821E1,2.0886353E1,1.5958278E1,1.610994E1,0E0,1.1328697E1,2.1465477E1,1.1734545E1,2.6388702E1,2.2000965E1,0E0,0E0,0E0,1.0043701E1,1.2567619E1,0E0,2.0662323E1,1.4469315E1,0E0,0E0,0E0,0E0,0E0,0E0,0E0,0E0,0E0,0E0,0E0,0E0,0E0,0E0,0E0,0E0,0E0,0E0],"parents":[2147483647,0,0,1,1,2,2,3,3,4,4,5,5,6,6,7,7,9,9,10,10,11,11,12,12,13,13,14,14,16,16,17,17,18,18,19,19,20,20,24,24,25,25,27,27,28,28],"right_children":[2,4,6,8,10,12,14,16,-1,18,20,22,24,26,28,-1,30,32,34,36,38,-1,-1,-1,40,42,-1,44,46,-1,-1,-1,-1,-1,-1,-1,-1,-1,-1,-1,-1,-1,-1,-1,-1,-1,-1],"split_conditions":[2.1083999E-1,8.935001E-3,9.2E1,1.95E1,1E0,2.65E1,1.86775E3,-8.337875E-1,-1.8088639E-2,9.30959E-1,8.6109054E-1,1.15E1,2.815203E-1,3.5283926E-1,1.5E0,-1.7146619E-2,-8.054955E-1,5.5E0,7.5999997E-4,-4.22246E-1,2.92E2,-2.7867202E-2,1.1709691E-2,-2.198595E-2,6.545E2,1.24E2,-3.2701213E-2,8.55994E-1,-5.922685E-1,-1.5434931E-2,2.196314E-2,-2.1125937E-3,1.2899531E-2,8.790572E-3,-3.205164E-2,2.0092344E-2,-4.4168676E-3,-2.904324E-2,4.342357E-3,1.6006859E-2,2.2915201E-2,-2.4375552E-2,1.2603203E-2,4.7050267E-3,1.5782066E-2,-9.6216454E-4,2.0552196E-2],"split_indices":[19,19,4,0,4,3,3,16,0,15,17,24,20,15,2,0,15,0,6,5,14,0,0,0,3,13,0,15,16,0,0,0,0,0,0,0,0,0,0,0,0,0,0,0,0,0,0],"split_type":[0,0,0,0,0,0,0,0,0,0,0,0,0,0,0,0,0,0,0,0,0,0,0,0,0,0,0,0,0,0,0,0,0,0,0,0,0,0,0,0,0,0,0,0,0,0,0],"sum_hessian":[1.3144343E3,4.2441058E2,8.9002374E2,7.069632E1,3.5371426E2,4.545535E2,4.3547025E2,6.870556E1,1.9907564E0,2.0443938E2,1.4927489E2,9.4128685E0,4.4514062E2,2.1317072E1,4.1415317E2,1.7399338E0,6.696563E1,1.917351E2,1.2704263E1,1.09869225E2,3.9405655E1,4.9634123E0,4.4494567E0,2.9951954E0,4.4214545E2,1.2609723E1,8.70735E0,2.8239838E2,1.3175479E2,1.7313524E0,6.5234276E1,4.9640953E1,1.4209416E2,2.2388728E0,1.046539E1,1.9700617E1,9.016861E1,3.0227522E1,9.178134E0,1.896941E2,2.5245132E2,3.4872503E0,9.122473E0,1.5960109E2,1.22797295E2,1.2768079E1,1.1898672E2],"tree_param":{"num_deleted":"0","num_feature":"25","num_nodes":"47","size_leaf_vector":"0"}},{"base_weights":[5.6170374E-1,8.9303595E-1,4.1548175E-1,9.134905E-1,-1.1693916E0,-4.6441042E-1,5.2331865E-1,9.336001E-1,-1.107131E0,-7.116739E-1,1.4671531E-1,6.899063E-1,2.788736E-1,9.707539E-1,8.411809E-2,-9.2971253E-1,4.4792315E-1,7.371111E-1,-1.4849073E0,2.6800582E-1,7.6801044E-1,-7.330775E-2,6.517546E-1,3.4636742E-1,1.0024551E0,-6.5175545E-1,9.878261E-1,-4.4885695E-1,-1.6782461E0,1.01563E0,-9.742452E-1,-4.400465E-1,1.1365366E0,-1.73811E-1,1.2421172E0,8.030093E-1,-2.9427746E-1,2.9328498E-1,-5.844107E-1,3.6164203E-1,1.0451634E0],"categories":[],"categories_nodes":[],"categories_segments":[],"categories_sizes":[],"default_left":[1,1,1,1,0,1,1,1,0,1,1,1,1,1,1,1,1,1,0,1,1,1,1,0,0,0,0,0,0,0,0,0,0,0,0,0,0,0,0,0,0],"id":19,"left_children":[1,3,5,7,-1,9,11,13,-1,15,17,19,21,23,25,27,29,31,-1,33,35,37,39,-1,-1,-1,-1,-1,-1,-1,-1,-1,-1,-1,-1,-1,-1,-1,-1,-1,-1],"loss_changes":[6.036972E1,1.8358551E1,8.489856E1,1.7629791E1,0E0,1.5246569E1,3.1450424E1,1.1386627E1,0E0,1.888441E1,2.9946747E1,1.4539124E1,4.322744E1,5.87323E0,1.3950544E1,1.913668E1,1.1797802E1,1.216535E1,0E0,3.427747E1,1.5376602E1,3.2131977E1,1.6728386E1,0E0,0E0,0E0,0E0,0E0,0E0,0E0,0E0,0E0,0E0,0E0,0E0,0E0,0E0,0E0,0E0,0E0,0E0],"parents":[2147483647,0,0,1,1,2,2,3,3,5,5,6,6,7,7,9,9,10,10,11,11,12,12,13,13,14,14,15,15,16,16,17,17,19,19,20,20,21,21,22,22],"right_children":[2,4,6,8,-1,10,12,14,-1,16,18,20,22,24,26,28,30,32,-1,34,36,38,40,-1,-1,-1,-1,-1,-1,-1,-1,-1,-1,-1,-1,-1,-1,-1,-1,-1,-1],"split_conditions":[3.5E0,9.5029247E-1,5.5E0,5.153E3,-2.3387833E-2,8.914E-2,1.65E1,1.0114601E0,-2.2142619E-2,5.278E-1,2.8134E-1,2.185E2,1.4885E-1,-8.9836097E-1,5.7772E4,1.8520001E-2,2.7E1,2.5E0,-2.9698145E-2,1.45E1,7.561766E2,1.65E2,8.4755397E-1,6.927348E-3,2.0049103E-2,-1.3035108E-2,1.9756522E-2,-8.977138E-3,-3.356492E-2,2.03126E-2,-1.9484904E-2,-8.800929E-3,2.2730732E-2,-3.47622E-3,2.4842342E-2,1.6060185E-2,-5.885549E-3,5.8656996E-3,-1.1688215E-2,7.2328406E-3,2.0903267E-2],"split_indices":[0,17,0,4,0,6,0,6,0,1,6,3,8,5,3,7,9,22,0,0,18,4,5,0,0,0,0,0,0,0,0,0,0,0,0,0,0,0,0,0,0],"split_type":[0,0,0,0,0,0,0,0,0,0,0,0,0,0,0,0,0,0,0,0,0,0,0,0,0,0,0,0,0,0,0,0,0,0,0,0,0,0,0,0,0],"sum_hessian":[1.2728916E3,3.8557114E2,8.8732043E2,3.83128E2,2.4431548E0,9.564641E1,7.91674E2,3.8066293E2,2.4650676E0,6.844317E1,2.7203234E1,4.6743207E2,3.2424194E2,3.6387408E2,1.6788855E1,5.830734E1,1.0135833E1,2.1005423E1,6.197811E0,7.54005E1,3.9203156E2,1.6688606E2,1.5735588E2,1.949647E1,3.443776E2,9.256098E0,7.5327563E0,3.785602E1,2.0451317E1,7.9039817E0,2.2318509E0,4.9530277E0,1.6052393E1,5.2650326E1,2.275017E1,3.8045566E2,1.1575902E1,9.7108376E1,6.9777695E1,9.3508835E1,6.3847042E1],"tree_param":{"num_deleted":"0","num_feature":"25","num_nodes":"41","size_leaf_vector":"0"}},{"base_weights":[5.7999754E-1,2.3489827E-1,7.516255E-1,8.412505E-1,1.0898565E-1,8.3512706E-1,3.9905375E-1,9.2392325E-1,-8.6339617E-1,-2.2776233E-2,8.838757E-1,-1.1321651E0,8.494599E-1,-1.8278372E-1,8.860767E-1,9.7595364E-1,-6.379314E-1,-6.836682E-1,1.9512132E-1,-7.967232E-1,9.7075987E-1,8.601029E-1,-1.088124E0,-1.3645202E0,2.4523659E-1,9.8255384E-1,-5.6134766E-1,2.6955268E-1,1.0762186E0,-1.0380517E0,2.9594356E-1,7.667732E-1,-4.126482E-2,-2.1536748E-1,1.0848823E0,9.8568434E-1,7.1363544E-1,-1.5977396E0,2.773271E-1,3.8098314E-1,-1.2385073E0,1.8412161E-1,1.1139909E0,6.6138303E-1,-1.3143431E0],"categories":[],"categories_nodes":[],"categories_segments":[],"categories_sizes":[],"default_left":[1,1,1,1,1,1,1,1,0,1,1,0,1,1,1,1,0,1,1,0,1,1,0,1,1,1,1,0,0,0,0,0,0,0,0,0,0,0,0,0,0,0,0,0,0],"id":20,"left_children":[1,3,5,7,9,11,13,15,-1,17,19,-1,21,23,25,27,-1,29,31,-1,33,35,-1,37,39,41,43,-1,-1,-1,-1,-1,-1,-1,-1,-1,-1,-1,-1,-1,-1,-1,-1,-1,-1],"loss_changes":[7.734784E1,3.3115803E1,2.4618927E1,1.2207382E1,3.8175728E1,2.1756195E1,4.9826214E1,7.334984E0,0E0,4.6164158E1,9.558224E0,0E0,1.628888E1,4.18062E1,1.4611763E1,3.8188705E0,0E0,2.8625816E1,3.277652E1,0E0,8.047451E0,1.0659058E1,0E0,9.949696E0,1.2655516E1,8.420181E0,8.4177E0,0E0,0E0,0E0,0E0,0E0,0E0,0E0,0E0,0E0,0E0,0E0,0E0,0E0,0E0,0E0,0E0,0E0,0E0],"parents":[2147483647,0,0,1,1,2,2,3,3,4,4,5,5,6,6,7,7,9,9,10,10,12,12,13,13,14,14,15,15,17,17,18,18,20,20,21,21,23,23,24,24,25,25,26,26],"right_children":[2,4,6,8,10,12,14,16,-1,18,20,-1,22,24,26,28,-1,30,32,-1,34,36,-1,38,40,42,44,-1,-1,-1,-1,-1,-1,-1,-1,-1,-1,-1,-1,-1,-1,-1,-1,-1,-1],"split_conditions":[3.7162676E-1,1.5486876E-2,1.65E1,9.381115E-1,4.582E-1,2.3E-4,2.7175E2,2.05E1,-1.7267924E-2,5.5E0,5E-1,-2.2643302E-2,9.5128596E-1,2.5E0,1.63235E4,1.5E0,-1.27586275E-2,2.395E2,2.4100002E-3,-1.5934464E-2,-8.028205E-1,9.2E1,-2.1762481E-2,3.141375E4,1.7E2,5.055E2,2.7875E2,5.3910534E-3,2.1524372E-2,-2.0761034E-2,5.918871E-3,1.5335464E-2,-8.252964E-4,-4.3073497E-3,2.1697644E-2,1.9713687E-2,1.4272708E-2,-3.195479E-2,5.546542E-3,7.6196627E-3,-2.4770144E-2,3.682432E-3,2.2279818E-2,1.322766E-2,-2.628686E-2],"split_indices":[20,20,0,5,8,1,14,0,0,0,22,0,15,22,10,22,0,14,1,0,5,4,0,10,14,10,14,0,0,0,0,0,0,0,0,0,0,0,0,0,0,0,0,0,0],"split_type":[0,0,0,0,0,0,0,0,0,0,0,0,0,0,0,0,0,0,0,0,0,0,0,0,0,0,0,0,0,0,0,0,0,0,0,0,0,0,0,0,0,0,0,0,0],"sum_hessian":[1.3182084E3,4.4037643E2,8.77832E2,7.308595E1,3.6729047E2,7.0638043E2,1.7145154E2,7.085873E1,2.2272294E0,3.150205E2,5.226995E1,3.7286487E0,7.026518E2,7.8222855E1,9.322868E1,6.961018E1,1.2485439E0,7.761888E1,2.3740164E2,1.4833248E0,5.078663E1,7.00176E2,2.475755E0,1.9945852E1,5.8277E1,8.832896E1,4.899726E0,1.0188971E1,5.942121E1,5.7286175E1,2.0332705E1,6.875626E1,1.6864537E2,3.9172494E0,4.6869377E1,3.6895776E2,3.3121826E2,1.7778706E1,2.1671464E0,5.506279E1,3.2142088E0,1.3701733E1,7.462722E1,1.7070667E0,3.1926594E0],"tree_param":{"num_deleted":"0","num_feature":"25","num_nodes":"45","size_leaf_vector":"0"}}]},"name":"gbtree"},"learner_model_param":{"base_score":"5E-1","boost_from_average":"1","num_class":"0","num_feature":"25","num_target":"1"},"objective":{"name":"binary:logistic","reg_loss_param":{"scale_pos_weight":"7"}}},"version":[1,7,6]}